,0,1
0,2.668941601429019,-2.420764841691663
1,3.9459098052252277,-4.720068343463308
2,2.698234513202198,-2.9441264522421724
3,2.2036719575146195,-3.7579621230550164
4,1.4766536146529314,-1.3610359246928003
5,-0.9760749758595204,1.3657967798884085
6,-2.5048348158656024,2.4896338931702897
7,-2.3649039677447736,2.9981248821595923
8,-1.1790710773971271,0.6911353196904875
9,-0.6992694909290791,0.4491579728529902
10,-0.5627364855641422,-0.3428785906035362
11,1.8969994736251272,-1.1207591998946809
12,2.0958131994882825,-1.5080918949682705
13,3.902152414380995,-1.2429429681293969
14,2.1661402201787943,-2.4979543754490536
15,1.4710853872265253,-0.12156708003741137
16,-2.1647561285443278,2.7004792076533564
17,-3.231885038251438,4.463424168444987
18,-6.133175655212057,3.154669070761169
19,-3.4734825272439815,4.4092695843099605
20,-4.536246886038735,4.483691800632804
21,-3.5669506208853714,4.508625662722387
22,-2.344734686764082,2.2159327504808313
23,-2.803034085417252,1.7172898623757042
24,1.5115831314767236,-0.3233694258159934
25,1.8865879722304275,1.5355367370368829
26,2.2038308480812474,-0.8164186689774104
27,3.0103168802678106,-2.44533679076002
28,-1.813632861393429,1.2769851001886257
29,-3.4507591868232472,2.242583138117725
30,-3.4081951074594863,4.163947177916491
31,-3.160251741118933,4.02148897548906
32,-1.3856495216439422,3.9189665105508684
33,-1.7875049968887653,1.3550320242080611
34,2.5699467303415684,-1.1216074900863426
35,4.699071800414215,-4.755874579086113
36,3.943627912462432,-5.541056800887139
37,6.142958077279664,-4.561702845140795
38,5.06852115224577,-7.204754955524603
39,6.443887540814958,-5.199267262413605
40,2.5814542934654527,-5.072553197870139
41,2.4026700651907325,-1.576938624345242
42,-0.23095857738938477,-1.1282946873430526
43,0.821336368156186,1.6119121838064296
44,-2.0093210241724297,0.8579287387078025
45,0.20318534836941338,-0.6980568401392544
46,1.412707298847869,-1.5684105568561522
47,2.447502637149288,-4.643672914874754
48,5.71228495222862,-5.649230275494546
49,6.450176473188737,-6.6610155942617
50,4.656493366917713,-5.744777582677557
51,5.795594138698344,-4.766332278160966
52,5.874405484573176,-4.573181276460996
53,5.361962554337831,-4.415646512688479
54,2.426807088291458,-1.691785021398698
55,-0.6817931237680913,0.5488102586250548
56,0.772893599622227,-0.4644800868012542
57,0.15542980660558775,-0.9321790424792267
58,2.652239844361922,-3.767634503279449
59,3.4734178586751514,-4.7819977407372
60,5.954502731246731,-6.623090987672216
61,5.19674978522854,-7.543791621567768
62,8.34658923153975,-8.45121117452459
63,7.815807903593344,-9.06957423310984
64,7.401040167877634,-5.485369554752037
65,4.596710543870588,-3.149757647956887
66,1.899126726858738,-2.4724348831947465
67,-0.9193434586554609,0.09935591118946072
68,0.40037556785257755,-1.2887565968973367
69,2.149196937085596,-1.4535089432661288
70,1.3410065661449875,-1.3276632792926983
71,1.9149693555588412,-1.1009326666242474
72,2.8459860301365696,-4.115964476068846
73,4.385797004575237,-2.1409172650356276
74,3.8685544957072366,-4.235061736538489
75,2.6095158540670007,-2.1128791690405992
76,2.824769351309592,-1.992726196060444
77,1.2315941492366822,-0.42664113308724316
78,-0.36129801593247524,0.514250931467926
79,-3.3281218856735264,4.118277276889465
80,-1.6911643188536987,0.784642331980504
81,-2.880235421019821,2.2822484378811
82,0.8027198933253232,-0.7364969187140166
83,-2.1824309839979015,0.1156926560856138
84,-0.8022640686657483,-0.7950698432138779
85,1.7239842902417797,-2.2736372360964605
86,0.020187839063864843,-2.6021370080071673
87,1.5804674954324438,-1.527960424766926
88,1.0936385438775071,0.241938835147468
89,-1.9932884063152012,0.3721725740833211
90,-0.3800979690460335,0.7588041115362898
91,-1.5504174822546954,0.20284831832687023
92,-2.5802230548086884,0.9535830851693878
93,-0.22191875071050643,0.4449829321964508
94,1.4232756499700796,1.7931061579449799
95,-0.45037361106870333,0.66909756706398
96,-0.5411629613586453,-1.6864693952532046
97,2.812070692021124,-1.517298473015232
98,1.5843596588450242,-2.517812476655069
99,2.9939120241763306,-4.528506152914454
100,1.8966889382777221,0.5880878621064449
101,3.57426442579366,-4.987445000907402
102,4.107854462749203,-2.025311216964316
103,4.817830870226198,-4.150268904581471
104,1.7191325282307162,-4.027919965866596
105,2.5206072627728338,-1.9967538930140538
106,-0.7211958857346282,-1.3171109811179034
107,-0.7503587304782257,1.4755134464282873
108,-2.255751893955021,3.799768227464079
109,-1.2815579039520604,1.1737287790288757
110,-1.5383848927439274,-0.9021267535087659
111,1.938347983486018,-0.29114769487802394
112,2.3436018562040033,-2.1877370178411404
113,4.809670802913993,-2.7369995847205777
114,4.356355772597238,-3.6435708054643636
115,4.1907132993013185,-5.223253311502686
116,3.4311508510573456,-1.7294607901711532
117,-0.7751152200367194,0.08561422022208637
118,-1.8617379526409317,0.770194061846001
119,-3.553560001895031,3.1834582026473806
120,-3.6404619609587576,4.530270219350299
121,-5.763641106794905,1.5801589427476883
122,-3.140761230197815,4.497470048402737
123,-1.3342281419213016,1.2746581855446053
124,0.7551822203168101,1.0426525291136273
125,1.1829742379714523,-2.7739095702110044
126,4.342858382956629,-3.0472095075987347
127,3.5827991462625284,-4.482166326614346
128,3.2033361673627416,-1.832619734678611
129,-1.0386846333634816,-0.4699896204333909
130,-1.2350110996039194,2.9181172607856096
131,-4.160476957580505,2.471038490694178
132,-4.0843560794333325,3.54685660124262
133,-3.6494526870737736,2.790177011361609
134,0.2684404889891655,0.6791108635134511
135,1.4396443712675202,-1.6561651027453064
136,6.03554510796643,-2.799995230502832
137,4.0142846115064685,-4.155536504303749
138,9.093343693153573,-6.650210846482024
139,9.635139835165166,-5.0186919083491865
140,6.462040919406959,-7.140360001549332
141,5.122843496505979,-4.183320299083723
142,1.9675123716806862,-2.974393962742165
143,1.2535250525511186,-1.9634595242565522
144,-0.6778516957814242,-0.801658825465936
145,0.4551363945250533,2.4517139353972004
146,0.5347216965683648,-0.4512531228022876
147,1.4739921461207433,-1.5441280198428926
148,4.256290590905968,-6.506531311425746
149,7.725166479260907,-5.784220491643935
150,7.493897491382745,-7.94249503983686
151,7.43353692790523,-7.421541970272079
152,5.774512223414365,-8.012472004747286
153,6.070636255028038,-6.288108620257777
154,5.564013145942454,-4.383930568765907
155,2.7160248331730648,-2.9165148231891935
156,1.3556018234688714,-1.44820014088209
157,1.4559895145603117,0.7644962304585072
158,1.4385741190754604,-0.9932860133712675
159,3.4139941702263323,-4.280179233018896
160,3.9224848834520736,-3.600344272863552
161,6.833064107628616,-6.211007825834503
162,6.820897050376522,-9.000582861526693
163,10.56704381978399,-9.380376828561786
164,8.768078769858592,-8.153205141629256
165,6.436142927952554,-6.672993791230439
166,5.14134256871125,-3.6241877656338684
167,1.1183357941000787,-1.270253060730604
168,0.362629327171268,-0.9429390395242425
169,-0.5085583127042321,-1.0340889640817275
170,1.8854752921893994,-1.710951097679006
171,2.2907362177696395,-1.466160577044349
172,1.0753280925282978,-2.3513864144052588
173,3.2505117944853597,-3.5144869593196466
174,7.770958384396961,-4.681241501036615
175,7.28347962623345,-4.971168152347554
176,4.496644474528921,-5.326687404100079
177,3.2261795738143966,-4.6544617307718354
178,0.43375013968625614,-0.7779374452899179
179,0.38419634278703774,0.3721044629366116
180,-0.3700607101793743,-0.5813275638721194
181,-1.4996268470569456,2.573708973678753
182,0.459372278783015,0.6477498448765378
183,-0.5009272483519163,0.08706395614486112
184,-0.04604209346456656,-0.682067431764611
185,-0.8587732122144027,-1.0421964323322859
186,2.232768570010699,-0.7085975606076863
187,1.2148209694573586,-3.765766169679998
188,1.2910168294519102,0.28053930067586386
189,-0.6038974150173532,0.8147301689548995
190,-2.629833841940274,-0.3204066874165535
191,-0.4483754428849245,-0.46682728617498725
192,-0.8087498591436926,0.09244174347305864
193,-1.0687345086832467,2.307766776525414
194,-1.7818012165398274,4.4090295270135
195,-1.3591324901666968,0.002998676500382075
196,-1.4736876008446074,0.4609239881171982
197,-0.6370627961255674,0.18368030523036988
198,1.0883405116100513,-2.5242676558530492
199,2.7100532360126546,-3.398743069191774
200,2.4473016703726334,-2.3191598390461787
201,1.1416380338506804,-1.8315996836269588
202,2.9522113693018612,-4.183087923190359
203,5.1370259762267345,-4.591341261874878
204,7.2298709633028535,-3.9481650198959173
205,5.894104743400879,-4.992041605761962
206,3.3982215256473136,-2.20345296760285
207,1.1204798663577038,-0.21055868797419075
208,-1.3036389015131538,0.11241521251030259
209,-3.3524785356226907,0.340197288181026
210,-1.9474162894641807,1.2614820982682562
211,-1.7559521608559694,1.4992335075167127
212,0.7262195308753208,-0.594256511417184
213,2.2963389839395663,-0.07015389607316544
214,5.099112256666874,-2.654707146676759
215,5.700281007465968,-5.543325488241375
216,4.6698458201351105,-5.845529788543917
217,5.221883938857571,-5.452817630429534
218,4.6929157552089675,-1.5241841469999808
219,-1.449426560295544,0.09428656944364558
220,-1.9797619514833,2.9511560340047014
221,-4.37112136023094,3.4446461734476523
222,-3.3195284518266868,5.72928181044791
223,-3.313327300565484,4.126672809350147
224,-2.394836646538471,1.4601142126265447
225,0.6535853075068035,-1.6181355803349806
226,3.9179249950675734,-4.11600391813883
227,4.938239367358772,-6.083974193223478
228,5.037257853090919,-4.6367841449862475
229,3.241490685112413,-4.4731871492143025
230,-0.3410568813394742,-0.9520963315522304
231,-0.623200978927593,-1.1063604601645964
232,-0.956896043310181,0.5725121866763523
233,-3.8247788065131507,3.875187690109994
234,-5.128377795417703,4.1402735744960335
235,-1.0811687156145122,1.6927100815556309
236,0.08565366877956579,-0.8448640753633251
237,4.14701765447869,-4.801014181676017
238,6.932262177887809,-6.1675802148791465
239,8.09812461419282,-6.019772301866224
240,7.584198241567512,-9.35544211296279
241,9.145924889865926,-8.83524461372956
242,6.456473941635338,-6.639547756200594
243,5.23228870008852,-4.1564140295275225
244,-0.37427266267345716,-1.4787066884678648
245,-0.1319426521499581,1.006526038418621
246,-1.2844631479398805,2.892788293173503
247,1.3913005150626518,0.2568154666073326
248,0.8953395178227547,-3.3001739095590934
249,6.518763949589362,-4.4102024445380135
250,6.498428307236135,-8.583678532483525
251,7.57116773771111,-9.183339629216972
252,7.576629208088489,-6.7123782962639424
253,8.671577372139481,-6.571407597633682
254,6.620517176572701,-5.880210078923462
255,4.562550714000486,-4.630575737972275
256,3.7535223179091375,-3.460160530368108
257,0.7371929714755965,-2.4683109740763896
258,2.374973970050163,-1.7682213922317842
259,2.999165626890778,-1.6774040577747225
260,3.8461285400700187,-4.739149016710047
261,2.3673449701436913,-5.430704994954767
262,7.805380584872493,-8.21081842172843
263,7.8348578889745255,-10.237832303065428
264,7.093496597527383,-6.135692832056119
265,8.159313293893188,-9.108922276028668
266,5.572831664440754,-5.557366616307476
267,3.593979259040718,-4.142136447769197
268,0.9852684134024469,-1.252140804674787
269,1.5788630721010888,-0.8430497073041658
270,0.6839862908918848,-1.2729466092757926
271,-0.24098549824096802,-1.1683428153840758
272,2.985576400800193,-2.8721084227378455
273,3.1208863499426114,-2.825718176247788
274,4.172353228642127,-6.526547147741777
275,6.369407159754616,-5.694704114557137
276,5.67822881557891,-6.643211418431958
277,3.530262513073222,-4.923983785386628
278,2.316191161881068,-4.166279601587533
279,1.6059994737320191,-2.350994683999501
280,0.6251706773149326,-2.0649855984334002
281,-2.115666142073855,-0.30436864243330947
282,-2.801647269160715,0.1351409616239265
283,-0.7697370336864711,1.375936324528114
284,-3.1195932251450134,0.2694589863358356
285,-0.459113466900764,-0.40839542015411145
286,0.03368667942385903,0.2106387922339369
287,0.283464477905373,-0.6275195217563736
288,-0.5653370472601629,-0.8765468714640459
289,-0.10885756586423218,0.40011557519092605
290,-0.5264359709741316,1.2045512680579362
291,-0.9255629404787431,-0.9015213954554873
292,0.2221619492386258,1.305990584448499
293,-1.7380262096484995,2.385946822657531
294,-2.2676469328336206,1.845378846459036
295,-2.3760003774104224,3.4008467215649762
296,0.25000410224600844,2.058968893735206
297,-0.3287233824910666,2.9573586050254574
298,1.6611682619951316,-0.38415763569054606
299,1.7945423759957884,-3.7954126115262214
300,1.3538873407931042,-0.5532834748707274
301,1.3119313803648662,0.14064198773562203
302,0.7460707203670278,-0.5219137899029569
303,1.4125091695228515,-3.292446912195337
304,5.445809586253333,-3.7213103474143026
305,6.709108463487187,-6.500548106278872
306,3.6871500702655235,-3.6421970060759095
307,2.4168444343254243,-1.5860870609591582
308,0.6908651566716257,-1.3530674492997332
309,-0.766794680148488,0.7558982239381831
310,-1.0974820171054644,2.2249513613715446
311,-1.981080741100071,-0.15193993133378741
312,-1.1920806191908613,2.546735080708352
313,-0.9483176387953886,0.9003220709865293
314,0.9482915548030555,-2.8189741560848005
315,4.575251765032957,-4.868328939042583
316,5.164271395024182,-5.6947778180883795
317,6.6654976683339315,-5.861372185954046
318,4.485425661454522,-4.826509280413073
319,2.9184877150821933,-3.782101648204837
320,0.8800780632972639,-1.415430712465988
321,-2.3915927027590964,1.7689768058904254
322,-4.8451655631510215,4.4920127158933125
323,-4.377427779140795,3.3561683131428435
324,-4.0717110123882465,1.7190533140454203
325,-1.7978149210662024,1.144366700678601
326,-2.646370124624101,-1.069169427380955
327,3.317478957870005,-3.392926337279177
328,5.957648344372268,-6.946236455334441
329,6.065449329149328,-6.505194991476729
330,7.469244121885128,-5.605543327466706
331,3.3473345618983696,-2.2624315321500696
332,0.2461339844145005,-1.0310527021117024
333,-1.723249504204087,1.4441244386348866
334,-3.6822383037012116,1.4316614237473622
335,-3.851479683728312,5.749679619974305
336,-2.8729587118690776,1.363947548369564
337,0.3870519240199599,0.330330169624479
338,3.427121390939993,-3.8721138324577256
339,5.496681282803316,-4.036280286950365
340,7.140528785482038,-8.875435229338805
341,10.28587278674855,-8.250578692198626
342,8.289716861532021,-8.721220171000178
343,8.930649176615594,-8.641602931252415
344,4.968968902293075,-4.395777199279779
345,1.4265148680135626,-0.8990820078010604
346,-0.6622913556509298,-0.3230417698125232
347,0.23957917432919754,1.9905914426624483
348,-1.648984249203689,-0.4824023699776088
349,0.7943578893205946,-0.7816840928385975
350,3.9308610760413556,-4.403349823257863
351,6.258296495382341,-5.712935822305845
352,8.184642299342832,-8.260791285518891
353,6.857889430792484,-9.177821522666342
354,9.8371883357839,-8.493706642483485
355,7.279329791514925,-6.455406823166779
356,2.211100532211178,-4.073236258742534
357,1.873200624379555,-1.057624866495662
358,0.5927578131745358,-1.6414980127544627
359,1.0250155239369168,-1.7439527308560243
360,3.2971848340988084,-1.649515486826352
361,3.652562604065666,-3.325530509194031
362,4.460581638011606,-3.755405799015488
363,6.824946090665355,-8.834795520794428
364,8.670260653800074,-7.250953707359167
365,7.4724651690482755,-9.341797572346744
366,6.541377899216308,-8.351701711233297
367,5.296807426062645,-5.047262015387605
368,2.9925902305412557,-2.4957614607207255
369,0.9055898796247486,0.7947416478284945
370,0.7026365996754981,0.4832342298052297
371,-0.43832149799599995,-0.32938581492873414
372,1.4392380498777633,-0.01587213244729696
373,2.8299537844137346,-2.824405733336082
374,4.48311686117895,-3.700362168208969
375,4.916652621462965,-5.696708568612501
376,6.228073347146437,-6.443357842735041
377,6.017180522642114,-5.791555782711406
378,4.500179174676601,-4.687237451200986
379,4.328880553284154,-2.5080900731883773
380,0.4178208464778567,-1.3228666824003146
381,0.810807212577439,1.4747500612302653
382,-0.652882127607186,1.7346401901796153
383,-2.316065927746099,1.6769266147329698
384,-2.426217224942406,3.5685344608343734
385,-3.649762196893404,2.200263795921066
386,-2.6502160344304984,2.178160548941486
387,-0.6780614484114413,0.6139783866513477
388,0.2987540876116095,1.0567718946693097
389,-1.8255198781438304,-0.26328537955885345
390,-1.3841473272601825,0.7266501022674648
391,-1.4669595252126473,0.9599947705857137
392,-2.315956677058199,2.779646468691474
393,-3.5868316870747217,2.2842814523246746
394,-3.230784421780719,2.6290117129104793
395,-2.9318721912365606,4.268303414592037
396,-1.7311595223936842,2.174133338586443
397,-2.938946849994078,1.2002037939139505
398,-0.7237454484990236,0.3276290951688549
399,-0.5835213018975685,-1.97520726100229
400,2.7897917684462996,-1.9590669542624213
401,0.7697416438925032,-1.410652116122791
402,0.9795197655152743,-0.7429942814519168
403,-0.13669063049043953,-0.5331266276115005
404,2.6667272845311483,-2.359569367051204
405,3.721173104728918,-3.4793663899589267
406,5.825407476768486,-4.509644511310885
407,4.5034473388294485,-4.6708736750068125
408,3.5311049856518055,-4.400228930209764
409,2.087409445670377,-0.06818493748233911
410,-1.0804609248977388,-0.04074955916284359
411,-0.1359056788776251,1.2847255995179243
412,-1.9376952815700645,-1.0842456300397705
413,-3.0253070123069556,0.2210993054933408
414,-1.9989319056813017,1.4071414768454504
415,0.5265964053252141,-1.6333824549966227
416,2.0013523740606916,-3.9396494609141857
417,4.205854134100926,-6.993845946574204
418,4.943490253176761,-6.948947701964441
419,5.2928544171679,-5.235989928430467
420,3.3761641951842805,-3.630018950661973
421,1.7017685215513483,-0.551054924568852
422,0.26316736029281285,1.2992635138268902
423,-1.2776201198476158,4.269904084579709
424,-4.715117065695442,4.459164591399453
425,-2.8040444846234367,3.231275205945778
426,-4.317103285582443,-0.6925920888322665
427,0.2846658182626377,0.0857472908995068
428,3.5685784974249497,-1.42920918974553
429,4.182287764902489,-3.349823812330324
430,5.782427352387757,-5.399610964740309
431,6.090712200372559,-2.2533876989370167
432,2.8469030236659028,-3.435616487336151
433,2.2400378779841996,-0.7893213134948858
434,0.3068040684118086,0.8440890744857721
435,-1.5327687626540802,2.1578493923217943
436,-2.8990079029527527,1.1769847149203503
437,-0.4883217540917102,0.30535701992495706
438,1.351199139964089,0.6121370535644395
439,3.4929232129720083,-1.6814632048643299
440,1.6544036724506994,-3.699092032871785
441,7.80868925990318,-7.6413413842312865
442,7.7573356821648725,-7.2485066974875965
443,8.025882148029467,-7.571732622492834
444,8.277416683915689,-6.598864637520361
445,4.061117199339208,-3.3350512385543425
446,1.2480856679873429,-4.075948843572319
447,-0.6540436040011764,0.5468674489972543
448,-0.3503492878172332,0.4654358111427063
449,1.1293538617284131,1.8231698598700348
450,1.8814958245771405,-0.8184852586659779
451,4.008757937903957,-1.2605544948881917
452,7.767568965009425,-7.938700795955997
453,8.540386714535268,-8.303223414829388
454,7.80147419409208,-8.075748206385414
455,7.536607162341014,-9.551940365263004
456,8.705536033962575,-6.752111558196603
457,3.5784154573591866,-6.492256328183936
458,2.066887306147779,-2.3958447462327355
459,1.261756972486401,-1.784788032451121
460,2.611951769311107,-1.1704526107131117
461,1.2065268604655022,-2.124314961630275
462,3.4320175216792905,-4.099017090090315
463,5.5210889940714285,-3.979645769159085
464,7.087133797980928,-8.253782963460417
465,7.252908622362737,-6.399706584893638
466,8.287695359051726,-6.989798306069448
467,5.21059755238721,-5.778272731391843
468,1.5303872636366542,-4.114827797206581
469,0.9177761450752145,-1.2751118830931496
470,0.865300535891198,1.1779311062428197
471,1.3248663859335714,0.06960521161814301
472,-0.3707780740022235,0.8471570057614061
473,0.03611011137843803,0.75069272247294
474,1.3074517974427915,0.7080067217968534
475,3.8120746773050698,-3.651845487040707
476,5.201433018962429,-3.8659522003908
477,5.61530900077591,-4.049717020801485
478,6.53145810862181,-6.594098972056182
479,2.6776250758307976,-3.296326463614676
480,1.6716102415423246,-3.4477638999257376
481,0.49837294630989915,0.5748248053945365
482,-0.6021426721038718,0.9842835953922862
483,-2.0136329082786157,2.4223732109764025
484,-2.268143515748768,1.5988646784725504
485,-0.6967546826307159,2.211327810514663
486,-2.5138234583731385,2.2890866924196795
487,-1.6654957682765676,2.853245005738408
488,-1.756248331576445,3.664987585991875
489,1.3122915816814609,0.49034761205156474
490,-1.606271342484504,2.7943899627441926
491,-0.45953812218248413,2.408464465429554
492,-0.9691182090528996,1.9492310549104486
493,-3.6488220704387007,5.09078321167867
494,-5.1902675878173214,4.818562036596024
495,-3.3420723428395,1.5078765145697965
496,-2.66832330334928,2.630654575935907
497,-2.9348637832638276,5.093726673778474
498,-0.6138401090703856,2.6516863862311384
499,-1.4410948647034405,1.8398061528480678
500,-3.0619519277825127,0.4127501336272373
501,1.8805495979156326,-0.6882111183066029
502,2.0509552758495624,-1.7176722051304374
503,-0.2840720057722699,0.019050739705292863
504,0.37738728226976936,-0.28069359027739826
505,0.3126091574436506,-0.6980907541670904
506,2.2970650736866967,-1.8504649960753465
507,3.595134848692807,-1.7618358987003235
508,3.582559189164813,-3.3535924014215825
509,1.8016727012056044,-1.211851532759713
510,0.7103205997892128,-0.9398445075856907
511,2.18299807403353,0.251657396814538
512,-1.7983068633681305,1.8141880456786446
513,-0.6905640910243419,1.099411565326036
514,-0.8597246880605803,0.33377497442588744
515,-0.7464580083632774,0.8669730955188105
516,1.13480394708841,1.4523231504021916
517,5.2625061446403025,-1.3176856808933572
518,6.119341379243437,-4.4997190847783735
519,4.747107288732968,-5.18641848415172
520,7.6449401908480965,-4.960977133796869
521,3.632137062040226,-3.631163143032491
522,3.0264738427686524,-3.7468067544892207
523,-0.38410736240849874,-1.5539497447422037
524,-0.9708866605634717,1.945727800351353
525,-0.1287096904510196,2.7969077180650714
526,-2.636264243464966,2.0950114063067318
527,-1.5117752774468338,1.3792089007335366
528,0.9391936922286874,1.7849760640548067
529,1.31972048464338,-1.1444448689656885
530,1.9558086127254886,-2.7019298480557055
531,0.9440529426898339,-2.8265818327233463
532,0.5665643343890835,-2.8758423163384013
533,3.630756002361456,-3.5219357196643344
534,1.438126735942744,-1.8687349184469193
535,1.9478841810021637,-0.6502172599423165
536,0.11407144849319023,2.411311992816799
537,-0.9134276225252915,2.843616205928135
538,-0.7879228822335131,1.4637453014884563
539,2.8291382196832275,-1.0079044226063476
540,1.8251660324573535,-1.5698242635137798
541,4.750097551526061,-1.8054984509417076
542,5.576101620346824,-4.260845169509336
543,6.36031916325444,-6.418615256894778
544,8.826680755132637,-5.83392215989686
545,5.576764989017211,-5.751323475930537
546,5.523725588931229,-5.571559350370012
547,2.534670341784593,-3.117271740814053
548,0.33523012641953254,0.2852089195806627
549,-0.6184917248684643,0.7631009442927057
550,-0.15219446024602118,2.5571641856216445
551,0.3297772599217038,1.061892646231299
552,1.03188667121526,-2.07912668780354
553,6.56627802192112,-4.980467703389742
554,6.716509554648635,-6.460960770996655
555,7.941452957813849,-7.7039504708299456
556,6.821143408031959,-8.152358756593074
557,5.379435282566359,-7.355563068423653
558,4.929791818142354,-5.720099470798129
559,3.7672544712336746,-3.157368757112743
560,2.8691056173614076,-3.2835323333497284
561,1.700892249059144,-1.4478910871749826
562,2.1207541154278062,-3.9778070655469513
563,4.907788008139062,-3.6213400714925
564,3.823251393333135,-3.5051445074162504
565,5.6625431721413095,-7.450077363659637
566,7.6846015436821755,-5.951206476016374
567,6.3081472306688395,-6.577541901876434
568,4.313551562770535,-3.883507633160269
569,2.498559083303285,-2.5810740334971487
570,0.7797711654040418,-0.10895950185948747
571,1.555428278515896,0.5988757583217227
572,-2.636592302880543,0.8909366857357925
573,-0.6812135710859353,1.3106437196158185
574,-2.18683331056749,1.77483102009776
575,1.7772514972555495,-1.8445000023045413
576,0.43457767050919427,0.14228267120387855
577,3.080236205167381,-2.8225679537487567
578,3.181624906222696,-4.281359962646907
579,4.6499879885401185,-5.191833795006248
580,3.6830380295212337,-4.320961444030832
581,2.38979847216112,-0.7341588770250798
582,-0.9870266771561849,1.5146848463660076
583,-0.34300380600551306,1.8840809045301523
584,-1.9014454150126392,3.1399473198653447
585,-1.6066194827672502,2.5539306634483547
586,-1.1622890023433259,1.8797943016831224
587,-5.274242736565467,2.195409086537709
588,-1.6867891475753578,1.7644839974747644
589,-4.000148941693532,2.6274335880974427
590,-3.225285691644573,1.5862008905194396
591,-2.699944119444325,2.76941659165378
592,-2.2743856879756112,3.1075030950440885
593,-3.5175871151305023,2.3670501138786046
594,-3.1485587175867797,2.444802161553726
595,-3.6054089374289475,5.965050812899347
596,-5.099217594407642,4.855226178083634
597,-3.9353719132684852,3.950140554407032
598,-3.4281892657816613,3.621744106178112
599,-1.0631215989065228,2.1258500364724946
600,-1.9438435387843966,1.708599730557968
601,0.49588560313573804,1.4934940627580446
602,-1.9123445609400775,1.2275266525940736
603,-0.7977066008763856,-0.31707032264667884
604,0.21554215970364887,1.2032513797259703
605,-0.2936528123865329,1.2288439946554752
606,0.7106539086968238,-0.16565089521992996
607,1.8219698544277194,-1.8897552233750532
608,1.3720586199414968,-0.6100460076920666
609,1.7419978354598264,-0.11895635417127945
610,0.44886519091718097,0.018877639290502374
611,-0.42458687075355206,0.5306544874051189
612,-0.668837438171775,0.19385284665398503
613,-0.3285472565287124,-0.48833815236187256
614,0.9724432381491166,1.918178730846112
615,-2.6706120747240907,0.2728066278874538
616,-1.638896641210704,1.2959000175522313
617,1.2086404489080453,-0.021827108041601234
618,2.1371201106826865,-2.508338813712893
619,3.6788209254805575,-2.3896143759283444
620,2.757828538582539,-2.7228904462195636
621,3.6117274704279625,-5.170690449812796
622,1.3692776281919172,-3.9083766994246223
623,0.8961227291078608,-0.4808450683887421
624,3.66710989652844,0.6286197829612593
625,0.12563989048221244,-0.45256223456679934
626,-1.7440334327571005,2.754072162832269
627,-1.8782691061797268,0.5732447043773912
628,-3.237939216176196,3.2232450432871573
629,-0.415315611991278,2.5995341970346915
630,-2.9756985472095403,-0.2840592530574805
631,0.3228516863987957,1.1273380975593483
632,-1.6228867663553534,-1.7750716301504759
633,-0.8270095089336541,-1.7896722552016149
634,1.0599103264023186,-0.926469267570625
635,2.729245487656823,-1.27594240314595
636,2.1002942965326494,-1.3662995721996933
637,1.3821369652637794,-0.044175323574461106
638,0.17503082368833378,0.6705392420807776
639,0.10958353391291922,1.3082630089423486
640,0.7874028027541484,-2.4780336147711295
641,1.1620258501001817,-1.849023083960585
642,2.06811978925653,-2.9675199789276627
643,4.5479466113590785,-1.6912966732123274
644,4.908953217699408,-6.246760337271554
645,4.877142983571833,-6.4069972720609485
646,5.223333493524338,-5.336938117058899
647,5.779210813159926,-3.044925608936117
648,3.1350479782936107,-3.0525988408816005
649,-0.20095779765910296,0.002460201368020276
650,-0.655415644878789,1.490876440884474
651,-0.7563810040256617,3.4556997162821737
652,-0.9317312181400242,-0.06616645403751112
653,1.3234718630749205,-2.4553258694359825
654,2.2915187569319717,-2.9491885690496757
655,4.954646085390767,-3.7734372399936307
656,5.420464277479699,-3.7324342863153306
657,3.961440494371651,-5.4058905201131005
658,3.9357599915902504,-4.1962676452043794
659,4.689741565186811,-3.43651366965157
660,2.9569554694242006,-2.6156910491119154
661,1.7214022935650322,-2.617737875040147
662,0.6441417155683274,-1.8681927039182828
663,4.091833614905897,-2.807541670206959
664,4.656166558678685,-2.277863268252927
665,3.0004221093110477,-2.949722423100047
666,6.351545136044675,-4.728497499657731
667,4.472254972520287,-4.852245355817701
668,4.253663089184681,-5.841453426510828
669,3.3309169084369654,-4.24776427760297
670,1.7516837344813914,-1.5636711220431205
671,0.5361774953982246,0.3584459025881817
672,-1.8657834583266757,0.8757314501135626
673,-1.4918920722173565,1.148610894172061
674,-0.3374636262442292,-0.8244501810146598
675,-1.9433626543260596,0.7771566931198828
676,0.10827380406669307,-1.3966365360617576
677,0.3645506151361716,-0.17395949587098772
678,0.4291880783670269,0.2893440539196388
679,1.8500117469549688,-2.4542612539535877
680,3.6287848837926844,-0.8921637267000182
681,4.493670139928883,-3.8862796832560877
682,3.533911709107257,-2.8649073980522415
683,1.9231224120705683,0.4053667940686
684,-0.8306507482188173,2.6798789946191612
685,-1.6545665630324993,1.5186489602536257
686,-3.028812612414421,1.3195703648007528
687,-1.4910341708721333,2.2926620878851907
688,-1.6997849515071253,3.3444780621954635
689,-4.07938847441574,3.2135371768297984
690,-5.082211447537456,4.308755313350798
691,-3.9456921743921414,2.765749616927612
692,-6.657319073427302,4.916969248336872
693,-4.999418401214106,3.340285361177215
694,-4.323553263645344,4.717878026394665
695,-4.981487360817257,3.1074178023185466
696,-2.9804726594954642,4.293888261439714
697,-2.4201040277209662,5.7728766918329475
698,-2.6218594017748806,4.817048118248598
699,-2.7198888461623723,3.898139135981925
700,-1.6698097291977327,1.055146135613298
701,-2.9930788654130667,0.33649907444868665
702,-3.807708413369702,0.18722028775787414
703,-2.5992160645587328,0.5564476797256719
704,-1.0609411017433612,0.8805948150803014
705,-0.45494811416083425,1.0697948900563465
706,-1.5561449925547883,0.3054278048703535
707,-1.77879037628748,-1.2293447397470605
708,-1.4522126174049448,-0.165600476725528
709,-1.4014729498660814,-0.5637121863088994
710,-2.0546654832229976,0.4881272790935077
711,-0.7297288195047241,0.1995223972194697
712,0.9007006743807269,1.2568881267058978
713,-0.34780315617873914,1.0804553408639175
714,0.0988106653438415,0.24505583747362666
715,-1.1002494161173628,1.1340764023364922
716,0.0418434601724878,1.0443996023210842
717,-0.8550063922791509,2.2743466132827517
718,-1.8864899830790631,0.8542514442525729
719,-0.8301159295678355,-1.7452177030792637
720,1.0835388468669436,-2.7295108582022736
721,2.9135588243428945,-3.026621111326622
722,4.018710664209473,-3.8723229626885947
723,1.5502704673062542,-3.0398368715948916
724,2.435294823243465,-1.378007459375861
725,1.9958418490732206,-1.2518148278597612
726,-1.8128158479853638,1.839972815072962
727,-2.380895516782845,-0.03543009237342404
728,-3.6634000462126073,3.315130015018047
729,-2.6421200159809284,2.2737945036260396
730,-2.7771270396410244,1.7002068011702147
731,-3.491876622696058,4.200123776327245
732,-2.072460502386025,2.2777401252752987
733,-2.3515844584509122,3.509699670485815
734,-1.6044849797513816,2.255807930976834
735,0.7329320147940146,-1.282762625613088
736,0.5873861909833371,-1.7303140748902919
737,0.1931604324489781,-1.014029156190493
738,-1.071171055012675,-1.0661456275983445
739,-0.5836867814092788,0.6298084974519853
740,-0.024111843937388355,0.9480319369831689
741,3.0574775454466216,0.5034906362877953
742,1.850614854572827,-0.0042282645072918845
743,0.6055903930554583,-2.6976902616562577
744,4.896971701523928,-3.013712984579146
745,3.5755205580616827,-3.078894604095978
746,3.430809821151944,-5.753597751430557
747,3.512955490531468,-3.6541243994413626
748,4.500631043941843,-5.011807263433947
749,3.0593250894772286,-2.836718121452043
750,0.8257560542353388,-0.006292837376759314
751,-1.4747710714947242,2.0202568085446018
752,-2.2726132689575156,2.632412734985884
753,-1.4644708390713128,0.21385821462240767
754,1.0099024245994963,-1.1570609762939392
755,1.7674330088469155,0.04170476120721364
756,1.1462672787060724,-1.1040497848789133
757,3.198705382120879,-1.50263163816061
758,3.331532053338335,-3.6343880926828476
759,5.031164886526974,-1.768938489094457
760,3.8979660037053794,-2.780091441466798
761,4.3470317060195915,-2.379306889155722
762,0.43399537154733725,-0.479868372997831
763,1.8146493935348411,-1.322628451715721
764,1.5796575894354477,-2.218405495501992
765,3.5271737923681266,-2.4344961690500484
766,4.747184016154461,-3.177360139502834
767,3.212317795744814,-2.576533351557153
768,2.537954343925701,-2.799754933601872
769,1.9004874912623768,-0.6396058751145272
770,-1.54879689591941,-1.3960708522250205
771,3.563605743283402,-0.577703689947199
772,0.6428642975915231,0.48078198826366136
773,-1.1169544578758133,0.5517486873994091
774,-2.030641207954295,3.0740935470593267
775,-0.9299799158782176,1.493427399293819
776,-1.7800218251149331,1.1580932145210954
777,-1.6599793830579221,-0.42513656265924926
778,-1.0531086423390494,1.4781248943006442
779,-0.16497200139994123,-2.372901637622103
780,3.060803897606988,-2.090075960693508
781,2.7850405533924008,-2.3194476090083427
782,3.951096173537323,-1.8985571492629625
783,1.9759031175636195,-2.1337499368287642
784,-0.48688138453831203,0.6634349605644639
785,-1.1101754932654775,2.118578134219785
786,-2.865705372091719,1.5071405606038881
787,-2.0182661677031897,2.4288434243819386
788,-2.738935575118784,2.9683747449583415
789,-2.184556055392466,3.645853185831009
790,-4.098165202737923,3.8208204622584345
791,-3.664349177645125,6.219253638437541
792,-6.499400251616553,5.388462881699137
793,-5.727914801645021,4.966131252102061
794,-2.254134219449363,4.191779086843634
795,-2.3212155880226906,6.913527428490645
796,-4.687887520539541,4.695207717511898
797,-4.567028180250662,3.9529691139594525
798,-3.098181006538986,4.871908983854659
799,-5.043585595450414,4.992985431113064
800,-2.9449395039787896,1.4562606369337994
801,-2.6649658053731327,1.2085768497847715
802,-2.695605341479781,2.812387571685134
803,-3.0745640964287118,2.2826871983676034
804,-3.4576047329993154,2.6025078861648483
805,-0.8363375133682582,2.720234186386177
806,-1.2568922061267174,1.038351711394003
807,-1.611771664041025,1.302858224861838
808,-0.6582900412227917,2.0237574226794353
809,-1.1260106127422793,1.3432235543248483
810,-1.911517076073673,2.9185187647632427
811,-4.537088419306867,2.1611450158661656
812,-0.8786013448468242,3.7514022566538325
813,-1.239625341801928,2.385180043309405
814,-3.1833276726443978,0.8266061046885443
815,-1.3605752862683542,0.37459899599568003
816,-1.3038177432646765,3.0752689040873484
817,-4.110990620726493,1.653075050470843
818,-1.0715524153840168,1.9119011417269511
819,-2.3676864348517928,3.6924262536778807
820,-1.247945742813943,0.057098446243950135
821,1.5465137868844347,-0.8280116477856084
822,0.5717162142744703,-2.2893135678188967
823,1.775465194438662,-1.2324400351401823
824,0.3986759207719466,0.7390612639157537
825,0.19813408890810866,-0.11331595220248261
826,-0.994932293686583,1.6801981535858903
827,1.7670576519654304,2.2950965940956927
828,-1.490310376032581,2.8382927968491525
829,-4.205981591338756,3.436811916360348
830,-4.5618468051906325,4.277426530644342
831,-3.0684183016242743,3.1588828806120084
832,-2.8663950997295276,4.73154456613996
833,-2.528675761443331,3.653991815889644
834,-2.897957868162124,2.02784014244485
835,-3.620313107321929,3.3066730888508404
836,-1.7379233575487407,1.1861179383319822
837,-0.6760815519300362,-1.0684312563415257
838,1.2092456312047308,-1.4730128826929172
839,-0.7798562375532667,0.4610297701811179
840,-0.8881876860758748,0.5055043435257445
841,-3.237179723246379,1.6689170437792629
842,0.9347068006921916,0.9767882658717973
843,0.3608135581978299,-1.134791191198758
844,-0.23330144819922274,0.6988269672047143
845,1.8776666656277294,-3.5806891953669227
846,0.013961346001051977,-1.8924684726510015
847,3.2575325496833134,-2.160733177858477
848,1.1377859421874061,-2.286172791389921
849,1.936684351014746,-1.6908599081742628
850,0.7300612861018423,-1.0309636662858321
851,-0.4489033098146553,0.10395112694312317
852,-1.550258732866625,3.296090359494601
853,-2.517047992241941,4.008797997561934
854,-5.323921663760195,3.1059961900439723
855,-1.7308521652305613,3.7659390896196543
856,-1.458272379771981,0.39821722931340486
857,-0.673563243742742,1.422193396840183
858,1.5329071625002515,0.0036425320222281676
859,-0.23223830645114402,-2.230439124734356
860,0.08089852979030235,-1.7270388149764428
861,1.9400799972472484,-1.1979000800348463
862,0.6098230677233473,0.9802470250967436
863,0.056227711748013665,0.9795282017245573
864,0.4762242649537464,-2.002681049338419
865,-0.6449047219960868,-2.420268718056189
866,2.8907282372977585,-2.7551669680984885
867,2.199358342638311,0.8585806293478733
868,1.4214930293807484,-1.3173383952001345
869,2.211058035254042,-1.759174726584259
870,-0.006044603288728634,-1.7284500009896233
871,-0.8107618863110119,-0.7489203366504376
872,-2.989062336088148,1.742974871083233
873,-2.179042362401597,0.39939757792304975
874,-1.5573751791939459,2.0192403237670575
875,-3.4970737427809633,2.9407935793854882
876,-3.401052442925202,3.870858126335737
877,-3.2656589221724355,2.11057297282201
878,-2.46729747738664,2.455151806536314
879,-0.4253974567126133,1.4657658623675223
880,-0.43719010620812326,1.7254448124962845
881,2.4794380117345134,-0.2899320311540614
882,1.9384409714192983,0.8921818546092113
883,4.765007702727494,-1.3282016622996555
884,0.9022138769824227,-0.39623378982277413
885,0.25893510360706495,-0.7236505412824823
886,-0.6641801625328323,0.746296451401121
887,-2.674255001489682,1.5244475976523602
888,-3.48461445249138,3.251497009775843
889,-3.5327111345290283,6.503097048567652
890,-3.941413821448308,4.9900910803007745
891,-5.751356002514658,5.0727562586952075
892,-3.998440797156796,6.626356267658671
893,-7.4307860825365255,5.655392838371091
894,-5.499936911647646,5.098209328296345
895,-5.5059669232981125,3.4445266888104817
896,-4.456735231942398,4.343817523976313
897,-3.501414141285483,1.5970306642982823
898,-2.933205833392007,4.500098160057407
899,-4.142973575056634,5.130277207201085
900,-2.7621971123447966,3.3629317622856765
901,-4.577793415200905,2.6459054504969957
902,-4.740122482653326,3.7582867160216193
903,-4.2643878639700326,4.22844801062829
904,-4.803648526222849,3.7413201013713926
905,-4.665956449769979,2.9466389929641736
906,0.03206405966243073,0.9609348764792446
907,0.8731990941069107,1.3977065155725592
908,-1.7096480970876415,-0.8453153972758174
909,-4.030426156297068,1.7760976978912217
910,-0.8046900714725169,1.1909765850299678
911,-0.204431434558413,2.243603042105058
912,-2.4243495844732554,3.2376140703086986
913,-3.6155443525578583,2.587383246919482
914,-1.8449675926274973,3.848582742983201
915,-3.4918532906794484,1.8574335009502962
916,-1.9214737529775814,3.193118955978156
917,-2.512465975363451,1.9221521727080215
918,-1.6906655001685085,2.7612925158674733
919,-2.599712325554093,2.3771865432074257
920,-3.2768545501515414,2.470616566739783
921,-2.345342308243174,0.4115552741608284
922,0.48440392030706103,0.8684170480060552
923,0.9842755130836783,0.20366049045503198
924,-0.17522372950533632,-0.8323763103282784
925,-1.3147262957396606,-0.31179444971039166
926,-0.7633112544483627,2.606450616190932
927,-2.7786974524171697,1.681497270512791
928,-3.5533019784501483,1.9268589243960657
929,-3.2317096011591,3.2078115456196996
930,-3.359624248616633,4.752168308736221
931,-4.709302271807473,5.510802049131235
932,-3.2231780590504733,2.5769339424963165
933,-2.7976917684969953,2.0146138039122743
934,-0.8665120176298461,3.169902237752496
935,-0.5501597721349705,1.714288765787605
936,-2.237519548535083,0.876985232149573
937,-1.4120896873887403,0.1783820109447143
938,-1.2613663328373703,0.3838898040614483
939,-2.663956342328566,0.3775196316621472
940,-3.6654852989764617,2.778246328454914
941,-3.9247539688442985,3.6354853875569533
942,-3.7426422282558773,2.361174763945356
943,-1.6404243956461086,3.1790627647916794
944,-0.9314580025528265,-1.3633117049788412
945,1.4983660881840912,-0.5762950720803557
946,-1.9518417812279152,-0.658876898655255
947,3.0700990074132672,-0.30473129229496554
948,2.0988713432686468,-2.0413809054437135
949,1.6195903121254298,-2.391109266258535
950,2.143357216948181,-2.0419759341826302
951,0.18861175114567985,0.20685043530368177
952,-1.947542017465304,2.085878926642573
953,-2.430214706446954,4.140605227051876
954,-6.338020101469624,5.262933182522925
955,-1.172133151682761,6.488296479529727
956,-3.5465498462474456,4.474393342563285
957,0.012663184254749382,2.504556606002106
958,-0.348767573668249,2.0878541857567305
959,-2.65987917172112,1.0532620421874233
960,-2.8385628335875817,2.578094059865823
961,-0.43255456766627987,1.9349572434380122
962,-2.1017938372662965,0.24499870294688408
963,-1.7093524364581232,1.4607473068577048
964,-2.7823155265021766,1.407477643280087
965,-2.740675937316911,2.138306896276015
966,0.08703692455230502,1.3096976211186848
967,2.4651733874235457,-0.014969487639523521
968,0.7056348801855058,-1.2238020826874805
969,0.21314913698082102,-1.9842207746535085
970,-1.7620776681256713,0.9998163784025282
971,-1.3061916167657832,1.7005129882844494
972,-2.305586307461534,1.6242646637498992
973,-3.0741007661123665,4.174852409118972
974,-3.4513738307811908,2.6605324504493613
975,-3.20172108715778,2.918038867137002
976,-4.500359916613531,4.433255521138262
977,-6.905439187354769,6.077645296228652
978,-4.951430212515156,5.348325156240252
979,-3.7532645403452487,3.4846075309819105
980,-1.3170955579936328,2.9473470601468907
981,-1.530824052932147,2.8755706712920905
982,-1.8539348943141676,1.7866692324621842
983,2.1151301359367816,-0.43693602550619304
984,1.7086674253232053,-3.1162139482176956
985,2.4737075471097523,-1.9375254551468357
986,1.6382765118808862,-1.2568390602580914
987,-1.4748663890082274,3.0725968344828796
988,-3.3457870228537465,2.695791238052438
989,-1.123020700675416,5.406481763419378
990,-5.140137873619705,4.648993393547537
991,-5.468473413966507,7.849012966799559
992,-5.439197033071902,5.6231308523801005
993,-6.820775968948491,5.207198291754462
994,-4.19644993411926,7.244373035576615
995,-3.979246140126067,4.3653940784454965
996,-3.4533255908714042,3.6979988234403476
997,-5.580269160309081,2.954965026413428
998,-4.58867125553665,5.014635585931514
999,-5.345120966436988,1.9147135051830064
1000,-4.210192114436449,4.057955407124324
1001,-5.251642646147462,6.105606128176579
1002,-4.247862901447223,4.78576012509454
1003,-6.266126218915136,7.702141753885892
1004,-6.073782618245716,6.679160501407474
1005,-4.2142183598431355,4.642590247288901
1006,-2.6404143288552313,3.07066257866185
1007,-2.065702183115778,3.923397620361458
1008,-2.1230781726725056,3.2756157161558894
1009,-0.3996925716291378,1.9891761000822616
1010,-1.5418708816577618,0.8175044163098855
1011,0.31740539106348653,1.1638547879004877
1012,-0.4325364400929662,-0.55162960247205
1013,-1.6223875859550538,1.4143074132686555
1014,-4.723820742896367,1.9668491579275198
1015,-3.4514152326524923,4.855349001648181
1016,-3.2007624841053115,3.201473499882513
1017,-1.5392680699510612,2.529919220191494
1018,-3.681538021844839,4.291393104127479
1019,-4.975712812145746,4.193904009915832
1020,-1.8115746082446402,4.70202544055935
1021,-3.4380455905499363,3.4167511645631135
1022,-1.599781383420341,0.7809771164630017
1023,0.23679072515209237,0.07643331598745712
1024,1.6985380691426637,-0.18699503754391467
1025,-0.3232188825550938,-2.41460734549727
1026,-0.19859934079096928,1.9047139487913556
1027,0.3056159732096766,2.5293165584058404
1028,-2.7150670350163972,3.654469422589642
1029,-4.19507812010493,5.22021128185786
1030,-5.880491110101437,5.193493764936185
1031,-5.497126941422646,5.823140577965823
1032,-4.8020165025281845,5.053747944302035
1033,-3.3682762721745942,2.5056063435612157
1034,-2.1635259949974315,-0.40809467557864665
1035,1.8033697533422903,0.5699994548087852
1036,-0.19826547478723808,-0.9058334664984141
1037,-1.1426954411773558,0.2975631379263707
1038,-1.2467277332740023,0.4486619341803241
1039,-1.2101050549516752,-0.33081890686312776
1040,-1.2862098198025222,2.9740106981124024
1041,-2.4927843602574344,1.7422170050650732
1042,-3.4586719391988066,3.7912338086253294
1043,-3.787587582909887,2.675246561456138
1044,-1.020598930882369,3.5698552325335933
1045,-0.7983085134488876,2.500234690409913
1046,1.889753319672243,-1.338900106648398
1047,1.1704249050420157,-2.634812426788618
1048,-0.6066232308020076,-2.199974623939804
1049,0.40710345687949334,-2.643979520228145
1050,1.5125024882060338,-1.7460690240671966
1051,0.5390155086481375,1.523178165999989
1052,-1.3227804854335976,1.159325318268037
1053,-4.263924196360152,4.80597294554564
1054,-3.3189710200433193,6.566559392802096
1055,-5.973940114116638,5.104359126807474
1056,-5.362850846414779,0.8810082336783039
1057,-1.3008645370382477,0.9313082378188338
1058,-0.5440695328338169,-0.5274624585155616
1059,0.40418943000564134,-0.9701543745055322
1060,-1.1680479493005445,0.8164251916603598
1061,-0.8343123760938678,2.172659953907447
1062,-1.1268481340711776,1.2085657643288543
1063,-3.2008377086811284,2.664048807094195
1064,-4.264854955328196,3.700845161266254
1065,-3.2956084361199722,3.262671311517358
1066,-3.9932775563896623,4.825221679383758
1067,-2.7802536051231583,2.7007726497947186
1068,-1.447419315544613,1.803015070351313
1069,-1.8858801004159855,1.0402351550310343
1070,-2.5071460151289466,2.114721393131339
1071,-3.3273522115079315,0.7640467890523864
1072,-3.5354789943688365,3.6453988945718887
1073,-1.4040612062036497,1.8382374581630665
1074,-1.5269840787016713,0.9388316105761679
1075,-1.822701322684978,3.018181351047847
1076,-4.045654963076821,6.017871851658182
1077,-5.844691618412633,5.294725418503206
1078,-5.042639702506572,2.476280096641605
1079,-6.22925785837518,4.445343512814984
1080,-4.795952785602676,5.187579565987329
1081,-3.131563423764534,4.195206398778807
1082,-2.2349847824215194,1.656590679442099
1083,-0.8458375136761339,-0.1129927447587219
1084,-1.0797820548579082,1.3182316962800822
1085,3.686722123576834,-1.5164115921710943
1086,1.6851434629015885,0.021494759014759474
1087,2.0226854089326074,-0.5632936508828342
1088,-1.902328066840006,2.8326993860807144
1089,-2.5214378939542286,4.409229923389015
1090,-2.769165683851551,2.9270996166446763
1091,-4.843779765082558,4.520269632608975
1092,-6.534079515753962,6.2629049520113345
1093,-7.4871755043213595,6.849161500425734
1094,-6.593503583368795,8.05075139655702
1095,-5.7121930759782735,6.844358876431361
1096,-3.0796134877968893,3.169251472009069
1097,-4.039612217152876,2.0470453361987073
1098,-2.4340664125004636,2.5861313839656175
1099,-4.008551513653018,4.835288026628319
1100,-4.621112258588576,4.007744303095495
1101,-5.157530003421035,5.20567526788814
1102,-4.601792365907865,6.520442207349918
1103,-5.910386822638748,4.642811302568751
1104,-6.624288511176485,6.245285087806718
1105,-5.793290508549021,5.895115396436506
1106,-5.713887969181149,5.182463613975607
1107,-3.6671686634760317,5.170200832758583
1108,-0.701581455119271,0.9374525729056689
1109,-1.8865685328017276,2.635794955729599
1110,-1.002105005114911,2.038872551608337
1111,0.6185897658876346,-0.5393443611002077
1112,0.779658678125289,-2.094207293514857
1113,1.4827257189823282,0.24158315091862415
1114,-0.1968924174962375,-0.10794505372469174
1115,-1.8339340144559224,2.5428422544762634
1116,-3.5683711940912177,5.593236303823433
1117,-5.23148141433534,3.5884593148890884
1118,-4.380453500221321,2.944927975731373
1119,-3.8440463362028585,4.085132116363453
1120,-4.889740915503594,6.2932300838754776
1121,-3.8527734497082937,3.0940558497646506
1122,-2.7244135294288827,3.735323316751949
1123,0.3766307426992329,1.2270420430599276
1124,1.9514021450822554,-1.7459339051853904
1125,1.231051053839305,-0.2034751227388045
1126,1.663747942787156,-1.6912023956424649
1127,0.6350931859140194,0.1286506176065735
1128,0.19947760281771396,1.0699521122440903
1129,-1.7835575480847865,3.877270472785303
1130,-5.272327307412537,1.8020811979755142
1131,-6.620247608910516,5.099313226048896
1132,-5.996971981972315,3.7390659402057365
1133,-3.976202751836416,2.5501460093416037
1134,-1.5409206177146615,3.2621114366263053
1135,-0.09735420230612013,-1.1771374887544044
1136,2.445732514589471,-2.980568417430023
1137,4.785271109771648,-3.383534437197113
1138,1.3287747684947044,-1.5855937815782264
1139,2.0854253331563757,0.5342123193403754
1140,-0.2919455573936165,1.6746423090198785
1141,-2.6873035332870003,1.752138656223003
1142,-3.8133831178974607,3.452688013287516
1143,-5.085172304074914,3.0717600041613835
1144,-3.0567841928083483,4.4132784141334245
1145,-3.6613931398065707,1.7123833752508335
1146,2.8123935240984212,-2.3637045029850867
1147,2.3393999603855926,-3.1078654795380443
1148,5.552449080737843,-4.699618183688256
1149,3.9709573208048,-2.481206091164881
1150,2.6805151767110518,-2.86069253105022
1151,-0.6031566078443014,-0.8961000347212115
1152,0.9443250613847469,-0.9316146572555914
1153,-2.1935498504562116,2.415923223738461
1154,-5.242192463576564,2.583505493549632
1155,-7.7657729366234145,5.552105189557866
1156,-3.526215303501714,4.502944780847112
1157,-1.1697289376242783,3.08428482170153
1158,1.0024822065961683,0.0575998735791069
1159,1.9759996899297982,-3.243920423299539
1160,4.414740943362076,-3.654746010816271
1161,1.5890818195506595,-1.5641722210387097
1162,-0.4892405492386449,-2.270290916993239
1163,-0.8926171025974398,0.39265455713691544
1164,-0.7419624123478352,2.4448817161020107
1165,-5.307111338515849,2.896339774000517
1166,-3.034240601804788,6.233744560005908
1167,-3.023312126825415,5.812868740253964
1168,-2.8305914329852175,2.6748496757134412
1169,-1.5297174760389998,2.14742393565695
1170,0.2361576839744139,3.4941422935861937
1171,-1.5297782505353321,-0.2998245972437621
1172,-0.8962675864787445,0.7350090364157814
1173,-1.3300116876241304,-0.6708862263031634
1174,-0.027802756451662636,0.016536512070274234
1175,-1.8692841627303962,1.8967941736661391
1176,-4.6141706046301865,1.6152840473210615
1177,-4.977781405562195,3.9012400829893648
1178,-2.5618084057716715,4.604034545651939
1179,-2.8780255590435146,4.829252767579987
1180,-4.725681309715678,4.070837913485188
1181,-5.585253450880622,5.52987671868356
1182,-5.249743287539933,3.3177678909704422
1183,-1.0349162828173444,1.0529556290109794
1184,0.5099503581473316,0.4058705509074694
1185,2.3328208906821226,-0.9335448729729776
1186,2.9921000354606675,-2.113781800516588
1187,1.706363545901725,-1.8830177415109968
1188,-0.059872133670621996,-0.5082298834041781
1189,-2.0472507294936695,0.7638669723003899
1190,-2.976587846864131,1.4947840225278282
1191,-3.4196707128661212,2.781321347715164
1192,-4.1382292708255175,2.4096571227320047
1193,-4.1636176498219415,4.6031582028849405
1194,-5.995711851996749,6.57846548313678
1195,-4.738078819849083,6.519428785457187
1196,-2.2143654933788826,4.159340840587707
1197,-2.804519456387754,2.7650079038240842
1198,-0.9725615162959279,4.9317448883074855
1199,-0.8898253720814668,3.2192208429946745
1200,-4.853244872835942,3.2881804878150844
1201,-5.123491139387355,4.423866239514751
1202,-3.7771465675633653,4.949374836791958
1203,-4.306179322862807,4.265933701092607
1204,-4.310345305592423,6.564859481256849
1205,-5.435775780846614,5.1683464007520445
1206,-7.407578255337419,7.150101525004648
1207,-5.567955381140405,5.282615742395354
1208,-3.930272174916092,3.5833273784349418
1209,-1.641715493649115,-0.15319637440505168
1210,-0.37392397063581884,0.8256168428103674
1211,-3.0498730058748222,0.9790783685899729
1212,2.8929892900156706,-2.1319532203786626
1213,1.438841847546393,-3.7441028396733818
1214,2.9851409086281135,-1.6744169727562737
1215,2.039740150430991,-0.5114946171177054
1216,0.24871888079162513,-0.2555096363287182
1217,-2.295907162438742,3.75501564684926
1218,-3.880736222197021,4.193921741132283
1219,-6.025527719259743,4.252231796989478
1220,-5.651438096602284,6.6932635754856715
1221,-7.627215858673288,7.037636108100919
1222,-6.78305470717338,2.1299253369784275
1223,-1.3920330047677065,1.312635935419844
1224,0.9052848343830111,1.6720776349764845
1225,0.6170997585081291,-0.6590625405930824
1226,3.6133447987826885,-3.3580973500541207
1227,1.7487200221767591,-4.061996662094562
1228,3.55857770627175,-3.139833090072881
1229,-1.9353512902422776,1.1074321709824382
1230,-1.278843951113964,3.0411922423157525
1231,-4.730858185169825,2.9980908059011275
1232,-3.5764635248743377,4.653299342747108
1233,-6.389634912347742,5.62813009350521
1234,-3.723862111886234,1.4909330016981628
1235,2.781367210574931,-1.537272354720531
1236,2.863521508039943,-4.132287703113535
1237,6.241020007420538,-4.8276615145733155
1238,5.863624534791302,-7.032006107342045
1239,6.994097822889517,-5.907421401433079
1240,1.451358492406209,-1.1770151046741835
1241,-1.425557941805064,1.08136992452481
1242,-4.182510380399961,3.3639562522302757
1243,-6.1651873800486605,4.81931808122501
1244,-4.469411203880568,5.42034112930054
1245,-4.044803709367271,3.446166832405868
1246,-3.586313741545899,1.9639239152639505
1247,2.008817507733004,-1.070279243624156
1248,5.8888273162330105,-4.4205610833926805
1249,7.709915948165471,-4.460924098023949
1250,5.853238904870528,-4.413396926948738
1251,3.5690832741973586,-5.5139174565260305
1252,3.083451256425022,-2.3840579670213824
1253,1.0829956655403863,-1.802038785132495
1254,-2.600119986643191,2.286345894225099
1255,-2.9345529936537305,3.71560810793803
1256,-4.355341249231452,4.762653193077131
1257,-3.424469513003617,4.523964233653151
1258,-0.7801631215801719,0.09287813932441036
1259,3.2011769258923057,-1.5922971908982877
1260,4.471233107323477,-5.903221307625492
1261,5.094701990098484,-5.18690031298113
1262,4.3779781077162205,-4.939603189451519
1263,3.748856710845962,-3.4241457838437452
1264,1.8336602649341533,-0.8885069001412066
1265,-0.07009710748538517,0.29268265965909623
1266,-5.1326412659847405,3.442616663130019
1267,-4.632166249208555,3.997876023417166
1268,-4.274603312282583,4.928856718983925
1269,-1.53957699001672,3.2863903291508554
1270,-2.4365651461952815,3.355586997203131
1271,-0.009453879739755866,0.46277561786684734
1272,-0.5787577865309204,-0.16910719742653282
1273,-0.818165246088818,-0.5745594204759092
1274,2.8442047806533943,-0.7807839766644458
1275,-1.1589367102984824,-0.07437092634552797
1276,-2.3079698511983175,2.3087052855564436
1277,-1.6315487411170306,3.127445960105776
1278,-4.145375436634485,4.299065384563454
1279,-2.9832892323121794,5.004646947637937
1280,-3.2234388379508063,3.0834302521855133
1281,-4.916118610550181,3.750690480294215
1282,-4.20310979209727,3.221599257290466
1283,-3.6905738564129518,0.3864613120667202
1284,-1.046694091162,0.16796584278657167
1285,2.3410668513193276,-1.6956769836417787
1286,1.6580972945892059,-1.8798245167987504
1287,3.076299759259395,-2.836152116151522
1288,0.8572083126719602,-1.497008507786019
1289,1.7260859974210954,-0.7877018319593034
1290,0.5010187820849683,-0.04345339664378725
1291,0.5681702752069375,1.0120905162192324
1292,-2.4481236590056197,2.0203422321899915
1293,-1.0406772094733863,0.9988208189460249
1294,-3.441690420815393,2.837079573327887
1295,-3.507461444798265,2.3044765783139445
1296,-0.9217448881763071,4.101477798697198
1297,-1.399970063861467,1.2002509283330345
1298,-0.5780423656190347,-0.2700722758630884
1299,-0.22437094380094447,1.0653230328761447
1300,-2.191013659114487,1.3545840333623842
1301,-1.4389296875536535,-0.49402943034103197
1302,-4.259025075064583,2.8654262597945577
1303,-4.837657016163189,2.5831901738835565
1304,-5.228697475333229,4.839488414620794
1305,-5.939957330583597,6.59087196870558
1306,-7.067754254669817,6.223879798404766
1307,-6.269365955395822,4.071196873672385
1308,-3.2473557277338916,3.3606884225819478
1309,-0.4397220311671892,1.9755918417850247
1310,-1.1608611923215402,2.461142050574468
1311,-0.9159874891042226,1.2238684815368215
1312,0.9057811201183542,-0.46527320955171503
1313,5.034369809699266,-4.400925857087291
1314,5.4978753214561875,-3.9644335780485793
1315,4.189008485444095,-5.08619251927186
1316,2.96149297326751,-2.8263663833351456
1317,3.0434650746597027,-1.5619941538929063
1318,-1.569535686830959,1.4513261752753883
1319,-4.105402708117377,4.968020530037499
1320,-4.209135254020302,5.889604178514393
1321,-5.853536003466463,4.733276116043276
1322,-7.706200953956451,5.945522172771712
1323,-4.211189328633076,4.433495056444236
1324,-2.5553783997313912,2.8988186174708845
1325,1.8170772607444734,-1.0020149572987744
1326,2.485204527720904,-5.594019203547809
1327,4.587115284068365,-5.106855289617122
1328,4.512862081942572,-5.215363745751171
1329,4.673191057027659,-4.655752881850477
1330,0.63484480378927,-0.7583999604961901
1331,-2.775057439712028,1.0310060850526706
1332,-4.474164280198941,3.8591652879036267
1333,-4.681045329080832,3.8501038831292598
1334,-5.073471220625375,5.482079580616126
1335,-2.3066363105626873,1.2733471570472887
1336,1.7712244901619718,-0.9188037043649714
1337,4.004353678755286,-5.579967035959328
1338,4.867422375010647,-8.058286196062076
1339,8.766733340639686,-8.335513261374956
1340,6.818476442074657,-7.749119308033386
1341,4.535054550555595,-2.5076567302968877
1342,0.41942275512344473,-1.4240255825996648
1343,-4.525767686915076,5.48926948880114
1344,-5.829535540942329,5.96744450569938
1345,-4.505677609856047,5.330014789710344
1346,-3.7688810832250206,1.7937219373071747
1347,0.2630827044888271,2.963273470885405
1348,3.4317979388991993,-1.9622804938411131
1349,5.995608387749084,-6.766549605233127
1350,8.441952956505888,-9.781647369827704
1351,7.941466506101946,-8.403959153165303
1352,7.916644912544814,-5.958402870098848
1353,4.57389441208496,-3.667697247027889
1354,1.4606138969374802,0.050632457371722006
1355,-3.11732792361291,1.7326009818647563
1356,-4.909758005590189,4.626715740283172
1357,-5.6746979614255535,4.5187474404909285
1358,-4.732698058086993,5.304880624661612
1359,0.5178190582602334,2.9055121142266476
1360,2.0752911875234514,-3.844282728666512
1361,6.988426885253854,-5.802113442397743
1362,7.755298186131668,-8.276004788118929
1363,9.623109508803918,-8.196396082379593
1364,7.390631592331817,-7.475983317817012
1365,3.3669719533743945,-2.0819666877509384
1366,-0.5362467315769464,-1.2305330322263708
1367,-3.9804605220153744,2.384288077513055
1368,-3.4505693905581194,3.458453976218563
1369,-4.228413857318741,5.652339856096812
1370,-2.7809662837816345,3.236433668095517
1371,0.46248575412520887,0.04760145129629109
1372,2.682499645352243,-1.4455523883683943
1373,3.4391005275901905,-1.4467190266684011
1374,2.574510410775736,-2.544486786035584
1375,2.679408052026608,-3.2751327383415636
1376,1.9499353182236663,-1.3648272621902395
1377,0.2017341183327298,1.9968332603335248
1378,-2.4290899674887987,1.868883178755069
1379,-4.505728591686924,4.912256074877574
1380,-2.5627777235469,5.350085624032636
1381,-6.099668823230857,4.930785260220031
1382,-2.5906553103693284,5.066732136371512
1383,-2.310847397401366,1.5848100912928194
1384,0.6323777685877475,0.07291154626530374
1385,1.4488964262178534,-1.920252389966583
1386,6.235575990422551,-2.7999483629681308
1387,6.122159010232905,-5.03350908313652
1388,4.3310533977832275,-5.833567266409458
1389,2.2493448835475633,-4.056687302178446
1390,1.999328441028398,-4.435424207955648
1391,0.3157534462129176,1.2756026264947182
1392,0.5817887909829618,-0.6861942575613815
1393,-1.622701789082834,2.1088215226210627
1394,-1.6249074996390989,0.2558294998041255
1395,-1.4812904520414845,-0.9828345771591411
1396,-0.13216969925553584,1.750663037286135
1397,2.897137954272111,0.27273124514215163
1398,1.31396211979004,-1.2769067584224887
1399,2.222901704656206,-1.650284249779912
1400,0.6314920995447678,-1.7780481751756936
1401,-0.5999133579459701,0.2578568634293617
1402,0.4376241340087403,1.8658422452509484
1403,-1.734056787709228,3.5631718454723913
1404,-4.7729278577766765,4.369516074014773
1405,-3.6374579179168416,5.788168050876925
1406,-6.280691832848123,5.2003583221474665
1407,-3.7419523620895068,2.2604626380458543
1408,-3.1999001557880464,4.447959117761553
1409,-1.9469274822098177,0.8732355763069617
1410,1.6173295762574338,-1.8169512178098768
1411,1.4512463837770095,-1.5065250775685912
1412,2.0659911298525078,-2.4949112939546545
1413,1.709827026949367,-2.3618626108699177
1414,4.628147225259671,-4.591476697824561
1415,5.906213584117077,-5.545513431138257
1416,6.555270423055235,-7.188039777024224
1417,5.616332102401265,-6.60845131839604
1418,3.831356608848543,-2.432725243616535
1419,-1.058341913693713,1.3918408727205331
1420,-1.962147707720061,3.2874049951957156
1421,-4.451570839851076,6.564934959976112
1422,-4.345577883538363,4.733525784260907
1423,-5.6717972192536985,7.006537688940584
1424,-3.7076859000938107,5.6985471282610405
1425,-0.7575015781379804,3.502214449641141
1426,2.1551210002584447,-1.4480943123251397
1427,6.348260163890299,-4.079914465161148
1428,6.241523288150801,-7.22814304684164
1429,8.288016570748196,-6.539049407935008
1430,5.87379821260582,-6.50128059980713
1431,2.5039117625083147,-3.7081613720183646
1432,1.6105708670523495,-1.3120784718637295
1433,-2.2974733390571114,0.6547812520921001
1434,-5.4582575066873735,4.527679166198732
1435,-0.7117590502941838,3.613598004681543
1436,-1.4095227799021013,-0.1311403848088797
1437,3.510209971962035,-2.8400391256516517
1438,5.207490914063474,-5.829295897683467
1439,8.033132550020476,-9.959716933217448
1440,8.393526713327603,-11.729038920559251
1441,9.447151974557753,-9.577864102758932
1442,3.534888531178252,-5.314172509234756
1443,1.8834222091646042,-0.4250680948158313
1444,-1.4038034311520933,3.5070546106891802
1445,-5.09228961296594,4.95573347275605
1446,-6.381442227628865,4.525788228178925
1447,-3.856284853244021,5.0661364844398085
1448,-1.1502664442847257,-0.5896770011832194
1449,2.7988141572894367,-1.5025659308943478
1450,5.28063801721059,-6.4531060285173085
1451,6.84520826577436,-7.407010600944405
1452,8.577327586115764,-7.863928548908785
1453,6.880183271405961,-5.632313951024096
1454,3.6081283344550124,-3.5076460856501264
1455,-0.23694633437175708,-0.25798268951098124
1456,-2.4493180439750084,1.8216109953137642
1457,-4.840619915959817,4.579988409617113
1458,-5.224006181348341,5.905753967134905
1459,-4.651751552334662,4.522338860304309
1460,-1.9530315763951296,0.6558579242456668
1461,3.242606176058164,-3.122466796856457
1462,8.58457236214812,-8.46602035662791
1463,10.148387476140861,-9.491661448593185
1464,9.963366020617592,-11.299948653250027
1465,10.212856903568339,-6.046394901235778
1466,5.146490142023469,-5.551507341509137
1467,1.010763709376881,0.6375963989333533
1468,-2.7803237906248173,3.1005949766812817
1469,-5.114484072998539,3.6418451867772887
1470,-4.764883908368431,1.8638783152536025
1471,-3.295950680800951,0.20279433447105893
1472,1.6721757493688878,-1.2548469322830849
1473,1.710370832661912,-1.8773989307249375
1474,4.669562178387501,-4.100365226292528
1475,4.417462043964986,-3.0703574345653877
1476,4.49341497682538,-4.724485898642221
1477,0.6923824806825742,-2.808571440522338
1478,0.5248205884351229,-0.23316950784649357
1479,-2.9470346006186428,2.4171282359863566
1480,-4.022394937619923,4.107275748262385
1481,-4.670191756385839,3.9956470315857575
1482,-4.006502912751153,5.764998406222619
1483,-1.1225207219564985,1.249044429515622
1484,-1.8696021129820881,2.493102175300643
1485,3.4240042933784203,-3.3411106474320214
1486,3.8112951211406463,-3.7323526405644714
1487,7.203866248847453,-4.191098087059992
1488,8.227010576573772,-4.7188039821561425
1489,7.3065808586566865,-7.340927911890664
1490,6.707847117373528,-5.082758798177131
1491,3.788578675518143,-3.832231434591192
1492,2.3953243101691544,-1.427779108431367
1493,0.9007242545878902,0.035043910238104714
1494,-1.534999600020537,-0.06259779086801645
1495,-0.8348381071627792,-0.34344115041811574
1496,-0.051645923316374076,-0.9952599444027768
1497,3.18990139742405,-0.9622213849825776
1498,5.47219618196537,-4.384048187066315
1499,4.496179611120197,-4.983717818220694
1500,4.947360572173446,-3.6731534243680475
1501,1.1978658130903759,-2.393095585887514
1502,-0.6806115434966996,0.41276656080495466
1503,-1.7397937730945914,1.4958199676327495
1504,-1.3015578184753804,1.2920448943316643
1505,-3.3734416877827993,2.65236815613531
1506,-2.949619710432277,3.966087711481117
1507,-2.514807272471468,4.356215662162444
1508,-3.00443375386518,2.3844027532153818
1509,-0.20234986528753474,1.482401489694161
1510,2.7015681892068373,-0.3396470796785611
1511,2.73212836266821,-4.23177994015943
1512,2.1731031858723,-4.073762288054683
1513,0.9772455633756545,-3.058903289528065
1514,0.32305223966709073,-2.592932294175715
1515,6.399635993395933,-4.43778026391141
1516,6.772801493685059,-6.886171351334418
1517,7.1233326454675225,-6.100961467795278
1518,7.070859326300982,-4.863303893286404
1519,5.317196358654109,-2.9624859771502305
1520,2.442451154506821,-0.6778280657658434
1521,-1.1347701456283792,-0.7174455641189026
1522,-3.0360999076680475,2.0650931978114913
1523,-4.153782936524085,4.003779856744994
1524,-4.704518434296659,5.6568840142795525
1525,-4.277992407547801,3.0941427188179245
1526,-0.7458930960911512,0.6903879536474519
1527,-0.9770174942770459,-3.271210477301082
1528,4.665779425746833,-5.564129453206404
1529,8.645547390029936,-6.705078097740609
1530,6.658809168434625,-8.403048348141096
1531,6.620799074096268,-5.734745187835888
1532,5.543636081210672,-3.5226206032032423
1533,2.198647129576371,-2.2259745232926873
1534,-1.8663100710207796,2.643843242377145
1535,-1.608078918296247,2.7150495210265317
1536,-1.4711385178164873,1.446862170873318
1537,-0.2709755683212751,0.47446159123396625
1538,3.2684203270227754,-3.0920147960273083
1539,6.840914793241098,-6.2501533172297234
1540,9.401012530285085,-9.428420339730444
1541,10.710516469686356,-8.778930520563849
1542,10.548411838296824,-9.066574357238862
1543,4.306252078600493,-8.250634073521804
1544,3.166555573901409,-2.0365979092097577
1545,0.9770584631030178,2.249240705493779
1546,-4.533106251968922,3.473572477709576
1547,-6.038180822561376,4.313151189804256
1548,-3.6146313669118895,3.705302724804752
1549,-1.1424416719115424,2.6684136149434177
1550,0.851918346903805,-0.837970379263556
1551,4.753261764609574,-4.236446047068696
1552,7.218860423202153,-5.764463046078476
1553,7.312494132006236,-7.371057117591723
1554,6.640552787673887,-5.433224590597673
1555,3.196286733773918,-4.456538369708669
1556,-0.4570619154089806,0.06196059431374057
1557,-2.439684532022252,2.0692947755618
1558,-5.035378733833243,4.769729048378461
1559,-4.182358273253542,5.113569347975812
1560,-3.6107007572973253,3.9583472067569585
1561,0.2638863236600014,0.6336571455107238
1562,3.1418511348834404,-4.171868184541726
1563,8.138937170902535,-9.615693898831397
1564,9.316048798085193,-11.586053365003403
1565,10.004971964137097,-12.320672380361325
1566,8.402854620696528,-8.01754168008654
1567,5.3976314808100065,-6.4233403435181655
1568,3.2276995280322134,-0.9509109505769336
1569,-0.7553601845952158,0.747475511214267
1570,-0.3370908493827617,2.1470214790655073
1571,-4.333855352770048,3.2032409290191723
1572,-0.771472039309983,0.6351318085134388
1573,-0.3877443020789738,-0.8703098473513128
1574,1.5872374760037549,-1.8383357146280281
1575,6.082713010428765,-4.988107485576236
1576,6.739422556343907,-5.33120854762049
1577,3.1445861153611467,-5.799550940317168
1578,4.470662032590435,-4.0629748651963355
1579,-0.6562211700465783,-0.6293145778419769
1580,-2.7016952118940005,-0.0677653030884218
1581,-3.725313923532427,4.784385241845305
1582,-5.840054596675024,4.623118484809575
1583,-5.504938176447329,5.372868254852903
1584,-3.809228042863873,1.1780901871146126
1585,1.9170386279840597,-0.27318797211618484
1586,4.307095520942724,-3.7451197624298547
1587,7.456432821640644,-8.498719998622732
1588,9.434314745320902,-8.480482831066672
1589,10.872476267654754,-10.067939051385558
1590,11.890107577587337,-8.152542022359217
1591,5.429700228479755,-6.5396514365812655
1592,5.015623036675594,-2.840941885010509
1593,1.908765931158534,-0.4279610367341722
1594,-1.1163576468216208,-0.0582668806329
1595,0.46779302552119173,0.8327921409252355
1596,1.3863191418082057,-2.6157243342949266
1597,3.929982296270439,-1.4598963811684917
1598,4.843495527326875,-4.466612711521628
1599,5.4877880081652295,-5.3753187023039395
1600,4.612247394277748,-5.181460268388971
1601,5.433767875352194,-3.4410896446175534
1602,1.2237745727669784,-1.7172450038358105
1603,0.6999591873263473,0.28080732377844503
1604,-1.4985321459504908,0.5037863197232293
1605,0.13094458737267337,0.725902807528532
1606,-1.3547385531637803,3.5172020943267435
1607,-2.418277926597478,2.376290034205426
1608,-4.035536871316374,0.41831220636893274
1609,-0.8060311885763759,3.209090680124948
1610,-0.10625748028287041,-2.858975564064228
1611,3.6631765216825793,-4.923907125729097
1612,4.572634616708216,-4.936812459358421
1613,4.790475006342712,-2.529278793525601
1614,5.090903530933743,-4.795888613291214
1615,3.312904750850098,-4.533919779560514
1616,4.579865865109284,-3.749412759525298
1617,4.610677418153221,-5.373625506842833
1618,7.413139783306603,-8.695966527589508
1619,4.813110621111539,-4.050359515512997
1620,1.7903344079844579,-3.2713112404628406
1621,2.7585118836491,-1.9865795061317608
1622,0.5185528978206189,1.2957177364926933
1623,-1.0637677844547935,1.5973463182513363
1624,-3.524839066744713,3.2855908495631585
1625,-4.677025332714679,4.2331155267904474
1626,-3.5563327753306826,4.362320547806869
1627,-1.0577304279902635,4.255888902025291
1628,2.443866377010533,-1.5407226087002448
1629,3.905000211999339,-4.913987470503948
1630,7.5203365022924045,-4.727744060075738
1631,8.202831193617024,-8.57091442970381
1632,4.8084911453911845,-6.681400487416039
1633,5.1969814813912,-4.3609672505362
1634,2.2199324384665635,-2.561669099854901
1635,1.4401736761756698,-0.6373291247122818
1636,-0.2433408520844849,0.39489045582863214
1637,0.545194986768565,0.49685146048547757
1638,0.30362950844989345,-0.03946820598169826
1639,2.438317611319288,-2.7802815267013608
1640,5.636236748471044,-7.045817642310508
1641,8.993802067131492,-8.475370970165889
1642,8.188534566951617,-10.722490202550667
1643,11.144338670006093,-9.11270258263534
1644,5.202363217642616,-6.890744079507544
1645,3.7356777460041592,-4.702230223456017
1646,-0.7634483712605373,-0.3152113120884317
1647,-2.757981364607047,1.4506697431491222
1648,-4.892343072181705,5.839079973251866
1649,-4.793227991154653,3.7564183451538415
1650,-4.6103582023260765,3.2525588645281207
1651,-0.6093938710532518,1.1937823921216097
1652,1.0100082948897569,-1.9042547231634743
1653,4.284145650185716,-5.638383364942603
1654,4.930899943618034,-4.082836839658045
1655,5.306180961469401,-4.169553595464752
1656,2.187026830462864,-1.4601788028531388
1657,-1.0746258386336913,1.3466487284607735
1658,-2.7472729040841077,1.4728020990499717
1659,-3.0537941425893,4.376869975854224
1660,-3.528173789331762,4.0668847821714005
1661,-2.766707267367901,2.247569652399124
1662,-0.6256109167202849,0.45183631333382623
1663,2.685828224924166,-3.6737668190195794
1664,5.548755224955728,-6.0194971737711525
1665,7.947406699396134,-6.921410559618819
1666,8.838704978055995,-8.335101394318121
1667,6.41276485361324,-6.193131672357489
1668,6.138113150190992,-4.518418853004146
1669,3.487868992348457,-3.7880730935049987
1670,0.8412580321615205,-0.7474404401486151
1671,0.39916565386861347,1.7424753874775865
1672,-1.7804556056636753,2.0593290626539913
1673,-0.47480939957076784,0.7121352933479921
1674,1.6257997235542865,-1.7400346497951467
1675,4.8072584834948975,-2.5289164925556844
1676,3.108761488735618,-5.1669042192705446
1677,5.337174290657349,-6.461769488276809
1678,6.577953816890708,-6.558254559205978
1679,4.131961243962992,-6.262581589955995
1680,1.7604070932557758,-1.7093046102193736
1681,-1.763012453153838,2.5311088344733563
1682,-3.7279271100455884,3.624583624682972
1683,-2.4588823612718693,2.3416475234238843
1684,-2.1490797471137975,2.7343302530254823
1685,-1.6499447812472563,1.927087091500676
1686,-0.24735840001893003,-2.818389429923564
1687,4.195867623442274,-5.298764458232753
1688,8.30289409876794,-9.333265686309748
1689,9.392195896536101,-10.741844799594192
1690,10.310669750997365,-10.149402285793562
1691,10.450586894094634,-10.243712636279904
1692,8.279301386638558,-7.958017556713143
1693,5.408607287590553,-4.237072446771735
1694,2.4957475170406145,-4.1609834335371385
1695,1.8998664235375118,-0.9539253755428629
1696,-0.6725497510388662,-0.6320971105815435
1697,1.5438969222774435,-2.0751302424248066
1698,4.050653681490886,-3.12952563310468
1699,6.105677240201897,-6.514997406825423
1700,6.960399156900978,-6.955087174853515
1701,7.86169669823998,-5.749593046121341
1702,5.2322289198234495,-4.561959675715509
1703,2.5580104124252783,-3.701378264851021
1704,1.823785808264171,0.26998359287626156
1705,-3.219588897962443,2.703163430382678
1706,-1.0987235870354444,1.8470107300587042
1707,-0.6741021959810285,0.8709453296511301
1708,-0.98600419150413,1.1994893039817758
1709,0.1241053218796011,-0.28897726698112913
1710,1.8104286229714255,-0.6175209533677362
1711,2.581206430897663,-3.978381590609536
1712,4.828892308877255,-4.4648933235419115
1713,6.609534144524512,-6.565221728830486
1714,4.478420382534846,-3.6859019293746313
1715,5.374150532184142,-6.564950898523991
1716,2.7047565507941598,-3.8216673317208705
1717,4.171846717598653,-4.557695397643414
1718,5.530216306406239,-6.518742602512391
1719,4.161506903731408,-3.061974366336967
1720,3.5820872698966935,-2.6416135044719207
1721,2.5048171261425,-1.7368670879405748
1722,-0.6658633361704245,-0.848342680694788
1723,0.9958173895273661,-2.248338537170232
1724,0.5056764104350935,1.1513959833417848
1725,-1.8679682706006258,2.087853885679915
1726,-3.502503853415895,3.6404443135658715
1727,-3.545796447521642,4.618353258008622
1728,-4.891744360123222,1.3970199334174127
1729,1.2804563999885548,-0.1901818193275873
1730,3.7629107404774977,-4.209929861120724
1731,4.489883732697962,-6.1900809014891
1732,5.917664742395877,-5.8097933252852325
1733,5.9684440661265254,-4.426306887213602
1734,3.4305835272773435,-4.376821297237861
1735,2.6232272651882065,-3.0362293894751984
1736,0.49153688443404314,-1.9193629893857371
1737,-0.032332566389614015,-1.3216986362909622
1738,0.7583357119686729,-1.7785005377147036
1739,1.5293975907017192,-2.9965503269391447
1740,1.1670028787701106,-2.697643892417973
1741,4.5446242155101055,-4.167105551322938
1742,5.461271747334419,-6.422092534403266
1743,7.282078804472926,-5.314756230784647
1744,6.273623407161042,-7.023937921166233
1745,7.281828408538466,-4.789986817812982
1746,0.6378510887377333,-4.803109124056086
1747,0.1477904239232488,-1.2549169950576866
1748,-2.2597424869418323,1.9287694121957724
1749,-4.525933452956394,4.462254127060062
1750,-7.760952105496662,5.095372128543998
1751,-6.066523283169573,5.666925547275532
1752,-1.6058401187377442,2.659399799583066
1753,-2.5288659903666177,2.336402462699267
1754,1.483110775000648,-1.8016457614502666
1755,1.4397766999278185,-2.648467722265186
1756,2.0850700206371204,-2.4206524384963046
1757,1.5154658421586071,-0.6741976767653816
1758,0.18252908518210173,-0.9386780516105494
1759,-2.39567895839352,0.9409553718516253
1760,-4.170299876994527,4.1306334967524645
1761,-2.9066381069248344,4.8988812466676235
1762,-2.250463530706941,3.8785232521042174
1763,-0.7103238434558353,3.935637851071157
1764,1.7969665686972154,1.2278051494443796
1765,4.111462229211244,-2.441547684159079
1766,4.245792048297677,-4.000194844132906
1767,6.02682191819804,-7.617982098574426
1768,4.7949618652812465,-5.263772133023705
1769,3.6692072801222473,-4.754316282296878
1770,1.9253902206605944,-0.8595477068911994
1771,0.553124930162433,-0.26732583236237784
1772,-0.43095867750460093,0.2670197947969339
1773,0.27174578215200074,0.9784798146637556
1774,0.4787913696280166,1.4140716994346714
1775,2.1164959840191124,-2.5544542303787003
1776,1.4454039025014747,-1.9476371738168954
1777,4.2148774109632745,-3.3538131467834407
1778,4.458085267007141,-4.777475136581207
1779,4.984523549249387,-4.573253335420803
1780,3.978510824789605,-3.6033596315079937
1781,2.4715030686667756,-1.563632390714107
1782,-0.034616694776187645,1.328663826948731
1783,-3.9947621860434612,3.2432712994161594
1784,-3.1218535098004185,2.8084347792576576
1785,-1.486882669573202,1.7635983058667597
1786,-1.031205664714651,-0.07690793811187138
1787,2.450680517162277,-3.3479858936962277
1788,5.465017768380061,-5.139234099819462
1789,8.563226815188283,-8.805277243127755
1790,7.826205772645986,-8.513165006934997
1791,9.920574543451542,-10.229265521554028
1792,10.246517268512449,-11.827419058515497
1793,7.766500948285754,-7.137586484428936
1794,6.162643663909624,-5.195567605388807
1795,0.6311994902233073,-2.354663557939994
1796,0.26566399856417633,-2.3752740075504284
1797,2.130922735916176,-1.2698726929227089
1798,3.9027274078376974,-3.464986958463989
1799,2.4130003033944587,-2.512706961241089
1800,3.0125081041304558,-2.770737912968042
1801,4.761328991346915,-3.791520392432774
1802,5.764535912908152,-4.537353371874545
1803,4.693915321850996,-2.514514094331146
1804,1.4597646527023187,-2.2338069663015157
1805,0.2512734902076016,1.363571579321108
1806,-1.1784416810661464,1.8243325306340885
1807,-1.9059997737894252,1.2080146258378381
1808,0.21860398936278516,2.554997375881548
1809,-0.09115380547659449,-0.6985466300094497
1810,2.904631628937015,1.1037403849421634
1811,2.371946318307725,-3.100580788811401
1812,5.163006291764292,-3.0060194565212512
1813,5.7959895994346935,-3.732973076986572
1814,7.296842143949954,-6.259992997234991
1815,5.834279592832916,-4.713623807488814
1816,6.971414427285676,-5.632793059995853
1817,3.2696139423513406,-5.02174594043261
1818,1.129386923216962,-1.7186732388130617
1819,1.6229155659742618,-2.6432766510279118
1820,0.983822665782584,0.8210825118776597
1821,-0.1432121527816856,0.23027066282604045
1822,0.034045177712771046,1.1330241331337165
1823,-0.6173650127873133,1.8187092241775182
1824,1.279183460328098,1.6659854954169302
1825,-1.069214404565356,1.2625620900123924
1826,-0.7757207023439844,3.7197619209224766
1827,-3.112338765612469,3.474572457403892
1828,-3.797788717885736,3.853373336739373
1829,-2.68840201447397,3.1990927306389367
1830,-0.535393114174087,1.1916677067922476
1831,0.5313860521188767,-0.4995531922109605
1832,0.762516872300232,-0.8887894600714574
1833,2.8760512410230903,-2.755767940096837
1834,2.3934129960602273,-2.4774149924876565
1835,2.740442042610918,-1.0503267344760236
1836,3.173552441831836,-1.8441820394100668
1837,0.691484112604912,-1.5119367018720393
1838,0.601792954506676,-1.2293685961101795
1839,-0.6694309993692173,-0.2618016205188397
1840,-0.2529564361941277,0.06913507159217086
1841,2.386294645651767,0.6213610742642428
1842,2.0198740055084468,-1.9564303802103302
1843,4.204299259271616,-4.5825353901626595
1844,2.939956176957537,-4.20393269451534
1845,3.2410160330748092,-2.7978791548500803
1846,1.5592360034614268,-2.559071267524701
1847,3.454055096776241,-5.5780825803143435
1848,-0.032504642768773434,-0.45404982505731073
1849,-1.225584881321863,1.7468873558219382
1850,-4.737538621789956,4.777497800454215
1851,-6.496619702003827,6.633411092326567
1852,-5.698429362524104,7.065522374689373
1853,-5.372475147008984,5.515923075004061
1854,-3.4486584383525716,2.792434163612514
1855,-0.8827917701339261,2.455610673240892
1856,-2.3005044900746143,1.409381044371604
1857,0.47344324427093654,1.5883635533139797
1858,-1.1741948613310882,0.4840621140168767
1859,-0.8618185397565375,1.1707143158188056
1860,-2.920385201451159,2.540118781878458
1861,-3.601685056448795,3.7695993563602044
1862,-4.729164953255332,3.5470899373659965
1863,-4.120067454785943,2.2903936550763957
1864,-2.5355322715898403,3.522335808718835
1865,0.3937863348273041,1.2172912543441918
1866,1.697368812651221,-1.8059946647041678
1867,3.4105061555423886,-3.0296781100930397
1868,3.175170227950775,-2.1544030505146816
1869,3.2845527965245656,-2.845717973715858
1870,0.962558369780115,-1.263508989199384
1871,1.3067190516514955,-0.9623273995385511
1872,-0.725636541870937,1.68186808506017
1873,-3.6838155545007707,1.1077016501913017
1874,-2.3018965611600457,1.0455658039190114
1875,-0.8231111053683222,2.4579240932078976
1876,0.7458214607345255,0.27327911438219754
1877,0.41621447410434764,-2.239744231209719
1878,0.5556631273044972,-1.973009702990942
1879,3.4073259731890237,-2.7695967880739225
1880,4.208516271812234,-4.238417291003465
1881,1.8821472314902583,-3.7226627837364332
1882,0.6979606010854467,-0.8160737384702568
1883,-1.5995418954480352,2.740447771568931
1884,-2.0981306141727494,3.6772096106250225
1885,-2.2534243553118642,1.996648934542076
1886,-1.8640946597839976,1.3151466623594732
1887,0.20005466489316107,-0.2656612197693502
1888,0.5374847024494928,-1.6740078993217684
1889,6.5835707405927035,-3.745682592435727
1890,5.805611337871112,-5.221286295492724
1891,7.612785155416844,-6.918163142319432
1892,7.688026451579102,-6.219718720372019
1893,6.9791425766649064,-5.3961922444156825
1894,5.596558275566389,-6.680539781363326
1895,4.880946891315839,-3.1628439039834384
1896,1.4563537384893637,0.885860527893705
1897,-0.11220719335588297,-0.26176941679769344
1898,0.824746754582643,-0.9079919556353857
1899,-0.91095981882787,-1.2661649441777512
1900,2.2961848856211877,-1.7540218023939664
1901,2.3032945214913325,-1.8706579578212679
1902,3.0625333850666214,-1.7670493040804263
1903,1.4447333878918769,-2.6769897691045266
1904,2.350827833563467,-1.946360937698084
1905,-0.8103387376029836,-1.9559020701024556
1906,-0.5565129269282337,2.504519843145405
1907,-2.520905476971976,2.0307265350719907
1908,-1.4521961786327344,3.0597335348167185
1909,-1.3670808723827799,1.362962699454147
1910,0.5300034072775738,-0.2373212067726466
1911,1.9832294309611276,-0.9062746082799531
1912,1.3847535616575952,-2.9259672678278603
1913,3.285239507694427,-2.9680092789743755
1914,4.665632843808681,-2.840858364922212
1915,3.936425495457269,-5.672990310846366
1916,5.884914098692137,-4.852224871720105
1917,5.365398257873734,-4.139110983957165
1918,5.653048992722763,-3.783262587424217
1919,-2.0088373216212028,0.6417500499453278
1920,-1.7397346418475024,-0.846177305931886
1921,-0.2586957457688116,1.5436957422176125
1922,-1.7777004706840411,2.050623889278065
1923,-1.1982929116151424,0.5062871197696233
1924,-1.9056788843370087,0.9047201969521985
1925,-0.7713562484596241,1.4448311442547672
1926,-2.6840993604939802,0.7641482630170011
1927,-5.999710240578112,2.7986299971216915
1928,-3.5790100845704025,2.591155060588176
1929,-7.880615998795802,4.589176148208569
1930,-4.188470631007068,3.83685552288678
1931,-4.183622222156602,4.114687647033193
1932,-3.173518970626205,1.2227173459304512
1933,-1.2807728428146654,0.7438080530931943
1934,0.2853318977087277,0.31764526098496026
1935,0.47285222300995106,-1.5205701696764544
1936,1.0978927723422287,-1.7964887594638923
1937,3.5642731532669725,-2.0783504114651583
1938,0.8381871351660232,-0.9058680273468424
1939,-3.355003719348372,0.022324963822660387
1940,-0.6914682013707647,1.325211039411358
1941,-0.9247492981830365,2.84295530937323
1942,-1.0590274531791868,-0.5779805643014024
1943,-0.27510352107432334,2.5215499924584823
1944,-0.6151165983133636,2.0524794691340458
1945,-1.2291050966723767,-2.0278841947530934
1946,0.16393728547652295,-0.29608761976642184
1947,0.8393485986504098,-1.4605038167679518
1948,0.27052645705552864,-1.2252342982149669
1949,-2.13250288708462,-0.5229772408169502
1950,-2.605075780048019,3.4220577794596645
1951,-4.841741288336535,4.945250894598397
1952,-7.589428779151192,7.008989026035729
1953,-8.547041012904039,7.5586028409874295
1954,-7.687600859603497,6.990038615745608
1955,-6.865690000845501,5.528142679867487
1956,-4.82804576818461,3.9841237652897816
1957,-2.4186368478006024,4.879900709987745
1958,-4.112117181141927,2.377921128681395
1959,-4.075467540481098,4.164284098773077
1960,-2.936655434476139,1.7486170873757383
1961,-3.5683664199780325,2.0571214250529444
1962,-3.9707375030165433,4.430830834420111
1963,-5.706486253835061,5.325149562962089
1964,-4.117209392669727,4.891014726410398
1965,-4.4764753285432075,4.185407607832822
1966,-1.5841534683462652,2.6600459274209856
1967,-0.5654785875781657,0.04670290079300268
1968,-0.142072290254995,0.6252070000845521
1969,-0.8416270146952696,-1.0575872010637803
1970,-1.1891535305253378,1.2584662672157143
1971,-1.4610423852536623,2.283841583414299
1972,-1.0880383101316067,1.1290884980086442
1973,-3.0419464204193227,2.7098031894622876
1974,-6.093893557818008,6.491769006265601
1975,-6.947115268392744,6.093824416427755
1976,-3.9734320695985184,2.9943196417280045
1977,-1.0481931589837399,3.1273434979384027
1978,-2.370571949863524,1.4303110687536473
1979,-0.5254727590944135,3.338413696458396
1980,-0.40496622277103833,0.49541072306055256
1981,1.2938725209430113,-0.8365760887216843
1982,1.646868427376377,-2.1863783793535023
1983,1.230733736017761,-0.018199169440779484
1984,-0.5651824526209874,2.7360655861829435
1985,-1.041130665365989,5.062472587297218
1986,-2.90295222050533,2.2020179911296145
1987,-2.308215800621429,1.758380456533988
1988,-0.06864907299214792,1.342408871458209
1989,-0.00595938868367496,-1.9778602063578854
1990,2.652992017933928,-3.490534997161332
1991,3.087193558718843,-5.242088660023912
1992,4.221636212185051,-6.369230373926297
1993,4.929987445786458,-6.090066237748073
1994,6.0356859430438705,-4.809210479542427
1995,2.80516783929419,-3.3756110779136734
1996,1.39543399672821,-0.7250866507781595
1997,-1.2039243980641636,-0.37551221530380985
1998,-2.134777989037145,0.6672197869725534
1999,-0.33935369293256723,-0.23386392147771
2000,-0.15023334867472646,-0.2032016640439564
2001,-1.690562937752952,0.22489168582056296
2002,-1.7350224743304004,1.4472248892107393
2003,-0.313297163470339,-1.2335133120778474
2004,0.5415527778981479,-1.9259362657275456
2005,0.07072410395432402,-0.22058328310740682
2006,-0.10535094006845294,-1.9316007030783007
2007,-3.209511079939994,1.123678994575693
2008,-1.0590453454095732,3.0261610145378897
2009,-2.993785358379805,1.5951774190377417
2010,-1.8518018260843514,2.8185670025402585
2011,-1.0049129708360565,1.4792592376325375
2012,0.3341967465255789,0.39422545230157147
2013,1.7235229207298413,0.0003606527314699015
2014,1.4545791097381833,-2.0624772821050468
2015,3.708791351310791,-2.1589768117433445
2016,2.684320979992228,-1.8932492857382797
2017,3.597792891242479,-3.759802077844217
2018,3.9795028102216916,-3.77081668294254
2019,3.992824517503346,-4.474140223380752
2020,-1.9119591841819268,1.9589756423551055
2021,-2.597519065672868,3.057153209224589
2022,-2.202457346768806,0.9612568858597472
2023,-1.0148456480987404,0.707439893148399
2024,-2.8754270140681513,4.039654265076957
2025,-2.292873949679962,0.5152014224640473
2026,-3.4481899101707962,0.822997998338753
2027,-2.4033714382318245,2.960805017150857
2028,-4.025115040642419,3.4435779729109295
2029,-4.375062394121712,5.016605250685915
2030,-5.674441533841532,4.417897681809275
2031,-4.213979458193206,5.184054378180804
2032,-2.7288548497592915,4.1792424830670205
2033,-2.9452950471286012,4.731981444266976
2034,-5.0129988563393395,2.739284070923408
2035,-4.6401042234354986,3.6096376661197884
2036,-2.327622961846379,2.0094999153834388
2037,-0.8157827844519003,-0.8675935456441095
2038,0.5534504411068891,-0.7663673255062785
2039,1.0657537728976743,-0.4616481336052722
2040,-1.726112582416434,1.7044755129253917
2041,-2.4215141935535276,1.9719884859455954
2042,-0.9154036131135088,2.8404255175837667
2043,-4.343276575373924,2.8168318468409046
2044,-1.8840339192408304,2.0421442378555623
2045,-1.978872595021482,1.3887180204338547
2046,-1.5511154262412774,1.6603778205850472
2047,-0.5040268382230093,2.4305367187403344
2048,-1.8064826289285358,-0.48031812166600474
2049,-0.908063287493397,0.48627187650441783
2050,1.1656601477345052,1.1327694577939784
2051,-2.4228125489536625,2.437532458227566
2052,-3.913043391772971,4.751466520472415
2053,-7.013517608321378,8.22987618413097
2054,-7.4575295450016,7.581051154615288
2055,-8.451474931632275,7.815194348792132
2056,-7.003053698673068,6.390351199388951
2057,-7.566167994210493,6.83136563790467
2058,-5.2449779994831,6.246217518749575
2059,-3.481303073770847,5.590811368261632
2060,-3.1842524509053964,4.0374801607409765
2061,-4.854974339302915,3.507105369235128
2062,-3.4888642906484924,6.897848240099464
2063,-8.352026358894378,2.616884445662051
2064,-6.843961750919405,8.831638994952373
2065,-5.553801778831193,7.445438520431883
2066,-4.999038297231674,6.358829211218037
2067,-3.002531649028682,4.979189600541623
2068,-2.805171306329879,4.167393300568248
2069,-2.0214651629199705,3.7019555500897035
2070,-4.686147874024771,3.669362661911895
2071,-5.431642250701344,2.3742677176794067
2072,-2.820887535966183,4.32814872154615
2073,-4.219145211001014,4.120810600375916
2074,-5.239471390841267,5.128276683533285
2075,-8.671670706237865,7.413123192547498
2076,-9.334651166127045,7.707778080722633
2077,-7.072109015325516,6.477642663757753
2078,-6.856330987886546,6.858451447391009
2079,-4.076470791147471,7.058625612465735
2080,-4.4890695022753615,3.012096915059235
2081,-4.6290889791815495,4.063144496935535
2082,-1.5850828604481202,2.669939343739626
2083,-1.0816662449065053,1.3131392297632833
2084,-0.9371209664923256,3.7715441431237293
2085,-3.992392951419241,1.9377559949374386
2086,-4.12916388467259,4.864074026231831
2087,-6.064954680962983,4.255124269256121
2088,-3.3026512301132294,1.9102003884989551
2089,-1.7770463900487328,0.13765934452928938
2090,0.4551258831109954,0.03185971752044697
2091,1.7871892698243514,-2.022967988247526
2092,1.126100732903206,-0.9441204357691656
2093,0.8969195991780491,-1.6905893741337863
2094,1.8236740038003931,-1.8612173635223497
2095,1.5637699984934899,-1.1586202031286437
2096,1.2713944586302555,-2.900219301173089
2097,0.09571243250546008,-0.8984602792749593
2098,-0.5949536107546946,2.5623548275026278
2099,-3.6226908999512153,1.8418875886369748
2100,-0.8685363682482541,0.20115275735463098
2101,-1.1911548849360598,1.0271350002356139
2102,0.19189003399333535,1.7612258745406604
2103,-4.017203067489892,3.102744082873507
2104,-1.624199438503297,0.7215167325471059
2105,-2.2023118302669418,-0.09621478635021635
2106,-1.9824624498126249,1.366547141932343
2107,-0.03367219322962178,0.6099222081796898
2108,-1.454707145735854,1.306595656341155
2109,-1.7836259361325781,3.2015971548669877
2110,-4.420802559363269,3.244127211993704
2111,-2.946158604014538,2.618177384072362
2112,-0.6861484841947222,2.374075497191516
2113,-1.3253137443484768,1.425896278611899
2114,-2.1154333814077275,1.813915064058454
2115,-1.172115855283004,-0.3363141942927155
2116,2.940283052736616,-0.7250807482324437
2117,2.801089247044933,-1.888975322090808
2118,3.070005629889385,-4.456569996402224
2119,5.602541768909693,-4.850949628715637
2120,5.248563607106103,-5.739070770689931
2121,-4.55305548731761,3.0083704473299178
2122,-1.7622096454395288,0.05556484657910238
2123,-1.9575325813576578,0.9735781147445672
2124,-0.3684849165976015,2.7904932141134084
2125,-1.0790372555504377,0.9724479474006336
2126,-2.14775042784444,1.7188615562155638
2127,-4.459861259102023,1.262452137235718
2128,-4.208050393845029,4.297465411597773
2129,-4.90982239249331,2.9199516040012985
2130,-5.578269425037809,3.7711455920116093
2131,-2.7680518454528573,4.815924945871401
2132,-4.074903012075268,4.658768353193539
2133,-4.30482090255693,3.610061792772515
2134,-4.369221705585941,3.179530325587858
2135,-2.7042489290731004,7.206878334615711
2136,-4.942278654377462,3.3445553225319684
2137,-4.582011345229221,3.2593226318894346
2138,-1.373081241059375,3.280644940815488
2139,-2.511480575584328,2.128947848768965
2140,-1.5116716390533202,1.0240198995457601
2141,-3.022519401783036,3.958931027707498
2142,-4.0730457699788385,1.7312907236522344
2143,-6.3399571941852075,3.7889918346368496
2144,-5.4198296182587375,3.5660776044352995
2145,-5.368552687930134,5.238942504372072
2146,-2.641679735957722,2.254096444887952
2147,-1.5945014330505143,3.6796950107408244
2148,-1.912531730635852,4.010372067981322
2149,-1.1756496501595473,3.551447897256702
2150,-0.5724685358283395,2.844182286693259
2151,-2.892096951700324,4.882507456664911
2152,-5.295753364494545,4.985699192538028
2153,-5.241953587139943,5.855353605725117
2154,-7.602332728496471,6.3112565587133265
2155,-8.986493843568953,6.686985036091424
2156,-7.491708097411885,8.589771467926928
2157,-5.884351115005021,6.456292372058894
2158,-8.56856937730413,6.180335351710686
2159,-7.4403112595850285,7.662766211222781
2160,-6.144837567090182,5.751270337637291
2161,-5.6550423806851455,6.6388676554734545
2162,-5.3562150657635925,4.329929593767059
2163,-6.600470618666075,6.352844690841825
2164,-6.767930182980343,7.6751374220876425
2165,-8.972518314389776,9.023280651654185
2166,-7.272438654354664,6.060597443758067
2167,-5.945816372321627,5.814415103291881
2168,-3.164895544315419,4.3617735894427705
2169,-4.7909223361225415,4.5542438681677595
2170,-1.4858194162393665,5.288437997263568
2171,-4.671240918152696,3.1827412013762246
2172,-4.070653782265352,3.27173620359848
2173,-5.427730448103535,2.7695690383024694
2174,-5.944619827720753,3.934575704200247
2175,-8.350256702572658,8.520584171916
2176,-11.359560545233357,11.157302667571933
2177,-12.741750288542578,8.859213844940621
2178,-10.983977543756618,9.480267412936119
2179,-6.879426403069221,7.802243567345693
2180,-7.932887573855715,5.961453735209474
2181,-5.760728926003523,5.7886536169944725
2182,-6.191343609080912,5.147761859482419
2183,-3.397264355434846,3.645961502694694
2184,-2.8722602668401325,3.3659511862401668
2185,-2.8850294515238266,2.8893830287912365
2186,-3.732972464400124,5.28250246144478
2187,-4.296483533460662,2.7862711436961622
2188,-4.899191795661415,3.8736718395792535
2189,-5.313382673684829,3.276277339885607
2190,-3.3480018857171565,4.028230954529592
2191,-3.0609907871891573,0.5289503831206108
2192,-0.5990156928039782,1.5625737057526186
2193,-0.2695792107411519,2.7486902500888224
2194,-1.6435694154045142,0.8671927074133757
2195,0.8719056982869982,1.0030454115263674
2196,-0.9098867328416174,0.23857567395048948
2197,-0.5443678561489094,0.6763316624651727
2198,-1.5184690553679707,1.9574388700959298
2199,-2.1553957808179987,2.764128909165581
2200,-1.7297698005004123,2.2395541915197867
2201,-1.7492762487891411,3.1426792044479193
2202,-1.6492236193744911,1.7623604669475026
2203,-2.252420537188349,1.7786736981098439
2204,-4.233489038624357,0.6902647649675109
2205,-3.5728728206124503,2.9347008125601874
2206,-2.726933579278516,3.4336994688800853
2207,-1.8402211899670646,1.9347564610155872
2208,-0.47607009496024,1.896414727885884
2209,-0.20397916961973037,2.411555771559349
2210,-3.937094083919737,4.015304716082529
2211,-4.607310057326079,2.1303411406497013
2212,-4.466381128291892,2.47633741569277
2213,-6.131367771039591,3.357388949454719
2214,-3.681701649533386,3.104285839001887
2215,-2.8131909143917513,3.44520479739898
2216,-0.5200223615666374,2.2413304597456483
2217,-1.2046168322213082,0.4239282390378727
2218,2.2505637213535428,-0.918461800625703
2219,3.7718948997286867,-3.6474337986333882
2220,2.8511455023145458,-2.5515209421659164
2221,4.963952867090626,-3.5803707949006744
2222,-1.3840546927714656,1.5717638551022663
2223,0.0358199652734644,2.6090290700869536
2224,-0.509197779836774,-1.4434918661552587
2225,-0.6971639873722598,-1.2720615104201427
2226,0.37534095376215804,0.5663875761079612
2227,-2.645645026477351,1.9442868680296863
2228,-4.261511335238632,2.5432619757130404
2229,-6.226106299882889,5.6254281217600255
2230,-3.348962422744409,5.725139630819631
2231,-5.660549348654411,6.417695362623189
2232,-5.025183294275535,3.6572950026029845
2233,-2.1854336210164664,2.512042107561594
2234,-3.0770424138680186,2.9635209090665064
2235,-2.9668111231945713,2.760269870423778
2236,-3.7294232641630285,4.279952764482903
2237,-3.000965492312777,3.201794773988034
2238,-2.8521176156981953,4.875986124240521
2239,-2.284622724031991,2.481815888980733
2240,-2.2021186556471526,2.920693324151792
2241,-2.7772779842322306,3.6674024243262
2242,-1.451520423633698,3.364226706617977
2243,-4.832755362302957,3.635360352471687
2244,-4.530497857373823,3.7722750891771706
2245,-5.404115396903466,4.9907153102965935
2246,-4.122203161953478,3.258943112561484
2247,-3.0611930669348424,0.6869924942073571
2248,-0.9138428218520671,0.11113262189458945
2249,1.6401079135839578,-0.6565467341556146
2250,-1.9089769115057553,3.776624626664832
2251,-3.3705260278259375,3.1298806515872424
2252,-3.171265807629395,5.131079711549009
2253,-4.792373400999415,3.8526340084490096
2254,-6.949417406090122,6.753858913063211
2255,-7.916168914086695,7.14100792334046
2256,-7.0034320908053616,5.343441089224106
2257,-6.3879615122899285,7.349031288629881
2258,-7.391556875196905,5.048001696718421
2259,-5.894134781777987,6.7753600150010564
2260,-6.371583920547984,5.2535873597049605
2261,-6.798193479860514,6.305357246658695
2262,-4.717000871576174,4.983240601668199
2263,-5.15971727857495,5.210822624582989
2264,-9.703552705572124,6.009998645563206
2265,-7.073866630559767,9.056756911377517
2266,-7.339802890515485,7.700121262739391
2267,-6.228382296616232,5.469434434167968
2268,-3.4437824691205354,4.5041997526322985
2269,-3.9186255066100353,3.6775034656553625
2270,-3.3734142119922286,2.844894042958635
2271,-1.0497973045441336,1.0567230564688124
2272,-1.1117811191730176,3.0557438970023116
2273,-3.6832701870841698,2.2502528017116976
2274,-0.6608723385948623,3.57760345781785
2275,-5.439896493767354,4.803789740323754
2276,-5.186977421454996,5.848073114436497
2277,-8.710661333014567,9.288842120669287
2278,-12.226972876076603,10.29707318492503
2279,-11.455483763316973,8.845487544003129
2280,-7.290516276467583,10.1346386028549
2281,-7.489784338450658,7.24962936718242
2282,-6.057612759033811,6.255039922075454
2283,-4.451950311577294,5.331518473696711
2284,-3.404518748367367,2.9288704546773956
2285,-2.471114476569458,3.2472609726535278
2286,-3.229361413736454,3.114475320035954
2287,-3.3849635520717998,0.7497743306559242
2288,-2.9292913548395014,2.2317761898729294
2289,-2.2048801241656197,3.5667187551793895
2290,-4.284551995551076,3.381806330901812
2291,-2.7526580272671333,2.234440222882825
2292,-2.688766954972151,1.9148813687275892
2293,-3.3856408506105624,2.1969747450429096
2294,-2.47924131435119,2.0022014871659946
2295,0.0928876218161262,1.0141945068187355
2296,2.6983709211858904,-0.36503596609618844
2297,-0.4192685396679293,-2.1007064785608534
2298,0.7801268998641842,-0.07114771070766687
2299,-0.8302870895470449,0.020637415090758976
2300,-1.6608285313794473,2.939168276338139
2301,-2.375211914806784,1.407937812350374
2302,-3.514018484615959,3.4841374341748503
2303,-2.233233496575159,2.807356672146249
2304,-1.7459948414926405,3.6063678513896504
2305,-2.341000580020334,4.80119241061896
2306,-2.2173510495045154,2.353889585621473
2307,-1.4745976564323198,0.913861720697245
2308,0.02137467346601013,-1.0042229781905434
2309,0.7357753626417131,0.31106374896911304
2310,-1.1595437180335275,0.9842217099169085
2311,-1.6918754108003446,2.909945611824756
2312,-5.140790280617523,2.4113826823510336
2313,-3.7696681209053393,4.823830776717305
2314,-3.776790818147254,2.9954240575817206
2315,-5.421635821288868,5.747272568625453
2316,-4.605345636731061,3.932548828992565
2317,-2.8044039537517933,1.8629244507629112
2318,-1.2249241279857397,2.1856533834449836
2319,0.746297947853696,-0.7074046287462212
2320,2.8261731093609193,-2.795811520477089
2321,3.620696948241078,-3.066035853885094
2322,5.440823551605762,-4.561910444894262
2323,-0.0999460841897781,-1.8776809829455514
2324,0.48179390948721945,0.3027315061986948
2325,2.1096818089383214,-0.6905601511424742
2326,0.8003517967349607,-3.658256015991349
2327,-1.0828938025184456,0.006608080188215487
2328,-0.6383880254851763,1.9717584414603833
2329,-1.1547090174040844,3.447551462685651
2330,-3.451831636444948,3.674546934438301
2331,-4.948176682816089,5.111587712779406
2332,-5.761105436368837,6.331077878761554
2333,-3.857838162553159,5.507545846849397
2334,-3.562882768827135,3.063355980908
2335,-0.08795009801524817,-1.0541394285564303
2336,0.5996595812934965,-1.49018792449556
2337,-0.5972365752380298,0.8663201226321965
2338,-1.0094332642142023,2.069462528403223
2339,-3.7450973072210805,1.1993617905801681
2340,-4.692670910629012,3.7499226095105134
2341,-2.084544578031432,4.099701174752307
2342,-4.45766464515226,3.17366486544422
2343,-4.004429026670283,4.6569209200003865
2344,-6.522747347627651,6.2601433282584535
